
//go to the end of the file for the code
//This model is thousands of lines long if you really wish to look through it, put it through a json prettifier first.


let mod = '{"layers":[{"out_depth":2,"out_sx":1,"out_sy":1,"layer_type":"input"},{"out_depth":50,"out_sx":1,"out_sy":1,"layer_type":"fc","num_inputs":2,"l1_decay_mul":0,"l2_decay_mul":1,"filters":[{"sx":1,"sy":1,"depth":2,"w":{"0":0.00008002125736585584,"1":-0.1558187859574838}},{"sx":1,"sy":1,"depth":2,"w":{"0":0.5063147403230273,"1":-0.21662077283190873}},{"sx":1,"sy":1,"depth":2,"w":{"0":0.7051591344213408,"1":0.5850241153056833}},{"sx":1,"sy":1,"depth":2,"w":{"0":0.4373220876002275,"1":0.044931145427124494}},{"sx":1,"sy":1,"depth":2,"w":{"0":-0.8242364609606783,"1":0.19354105862632848}},{"sx":1,"sy":1,"depth":2,"w":{"0":0.6319628929903046,"1":-0.03721148700449415}},{"sx":1,"sy":1,"depth":2,"w":{"0":0.7207869652922643,"1":-0.4993809760212608}},{"sx":1,"sy":1,"depth":2,"w":{"0":0.2344534980002912,"1":-0.10055620171979458}},{"sx":1,"sy":1,"depth":2,"w":{"0":-0.5147631078602481,"1":-0.5418041606966043}},{"sx":1,"sy":1,"depth":2,"w":{"0":0.0006579205971009492,"1":-0.01015634399728563}},{"sx":1,"sy":1,"depth":2,"w":{"0":0.066692533441067,"1":0.5389260757451679}},{"sx":1,"sy":1,"depth":2,"w":{"0":0.7123589486123014,"1":-2.030750142922205}},{"sx":1,"sy":1,"depth":2,"w":{"0":0.14276349322699908,"1":0.6715363875733321}},{"sx":1,"sy":1,"depth":2,"w":{"0":0.2840279285826894,"1":-0.3950601467970308}},{"sx":1,"sy":1,"depth":2,"w":{"0":-0.7364949435095672,"1":-0.4078288931199883}},{"sx":1,"sy":1,"depth":2,"w":{"0":-0.5377331913026587,"1":0.3945078159358125}},{"sx":1,"sy":1,"depth":2,"w":{"0":-0.12824744551835934,"1":0.08836304840528156}},{"sx":1,"sy":1,"depth":2,"w":{"0":0.21934930542308606,"1":-0.04210837392435235}},{"sx":1,"sy":1,"depth":2,"w":{"0":-0.07031060374918896,"1":-0.8402269757705337}},{"sx":1,"sy":1,"depth":2,"w":{"0":1.082473925084051,"1":-1.6401803044063712}},{"sx":1,"sy":1,"depth":2,"w":{"0":0.35921141360196757,"1":-0.28927635881105646}},{"sx":1,"sy":1,"depth":2,"w":{"0":-0.6973285518680152,"1":0.21964731470419066}},{"sx":1,"sy":1,"depth":2,"w":{"0":-0.6275965195993101,"1":-0.14337280826338497}},{"sx":1,"sy":1,"depth":2,"w":{"0":-0.05669802159963748,"1":0.6214348872247586}},{"sx":1,"sy":1,"depth":2,"w":{"0":-0.7561811040596143,"1":-0.6035191247090747}},{"sx":1,"sy":1,"depth":2,"w":{"0":-0.6109835115818354,"1":0.10624801338826804}},{"sx":1,"sy":1,"depth":2,"w":{"0":0.5850385430821057,"1":0.9583807178390541}},{"sx":1,"sy":1,"depth":2,"w":{"0":-0.08041348472538909,"1":0.10907830200754104}},{"sx":1,"sy":1,"depth":2,"w":{"0":0.491801220070846,"1":0.18619188497900435}},{"sx":1,"sy":1,"depth":2,"w":{"0":0.9609129622435595,"1":1.3652606595303187}},{"sx":1,"sy":1,"depth":2,"w":{"0":0.05595428763392865,"1":0.5733136780689984}},{"sx":1,"sy":1,"depth":2,"w":{"0":-0.26572174081184297,"1":-0.009875449837724848}},{"sx":1,"sy":1,"depth":2,"w":{"0":-0.5569852574142807,"1":0.963631676176609}},{"sx":1,"sy":1,"depth":2,"w":{"0":0.12937710515756198,"1":0.41375102138544817}},{"sx":1,"sy":1,"depth":2,"w":{"0":-0.10871741888775724,"1":-0.06424569587950243}},{"sx":1,"sy":1,"depth":2,"w":{"0":0.6919983466882014,"1":0.1205570296146611}},{"sx":1,"sy":1,"depth":2,"w":{"0":-0.2945659800532355,"1":1.4369206973331297}},{"sx":1,"sy":1,"depth":2,"w":{"0":-0.5908687667397123,"1":0.23517329859818276}},{"sx":1,"sy":1,"depth":2,"w":{"0":0.98190920458781,"1":-0.8671237707245741}},{"sx":1,"sy":1,"depth":2,"w":{"0":-0.06905737275747581,"1":-0.21842809642910044}},{"sx":1,"sy":1,"depth":2,"w":{"0":0.4515605194156991,"1":1.428412819421287}},{"sx":1,"sy":1,"depth":2,"w":{"0":-0.22896610855628421,"1":-0.05444338459716622}},{"sx":1,"sy":1,"depth":2,"w":{"0":0.40592800428230497,"1":-0.6127915180752347}},{"sx":1,"sy":1,"depth":2,"w":{"0":1.2319310945066702,"1":0.6957762714296581}},{"sx":1,"sy":1,"depth":2,"w":{"0":0.6349689804879689,"1":-0.9303760360889157}},{"sx":1,"sy":1,"depth":2,"w":{"0":0.8470755368018303,"1":0.04088988377233565}},{"sx":1,"sy":1,"depth":2,"w":{"0":-0.019981066021288227,"1":0.5734116642709741}},{"sx":1,"sy":1,"depth":2,"w":{"0":0.7828383689973611,"1":0.26949064829345515}},{"sx":1,"sy":1,"depth":2,"w":{"0":-0.6258987351046806,"1":0.04896397894786396}},{"sx":1,"sy":1,"depth":2,"w":{"0":0.597796764670208,"1":-0.8798409404920555}}],"biases":{"sx":1,"sy":1,"depth":50,"w":{"0":-0.00949569956855687,"1":-0.045745491230169,"2":-0.029457727882156844,"3":-0.06242133533785096,"4":-0.006678440804918982,"5":-0.0014395095674734088,"6":0.03469048058744333,"7":-0.04378124933280583,"8":0.010202755036472739,"9":-0.005552547339015687,"10":0.010816998710344574,"11":0.07971304468735398,"12":0.09013694212875598,"13":-0.0010290216397586323,"14":-0.10467022242027825,"15":0.065606258446192,"16":0.03597636717164007,"17":0.0674097869246385,"18":0.04249873501852995,"19":0.02988925548965844,"20":0.002509780750342451,"21":-0.02230191544238289,"22":0.07818356224759646,"23":-0.02695161066712477,"24":0.010491657764008816,"25":0.02061084173447741,"26":-0.029569276840121544,"27":0.020524285490325322,"28":0.03181213175772669,"29":0.009714804124111288,"30":0.06998734138801985,"31":-0.06027154892282188,"32":-0.02015389069066165,"33":0.041509308731503804,"34":-0.0572555916527651,"35":-0.04006472323967603,"36":-0.07822318304459482,"37":0.0317032653469623,"38":0.0375702899022173,"39":-0.1352589950309042,"40":0.05487505876345495,"41":0.0032449068402914316,"42":0.011418457491464003,"43":0.02784884800889159,"44":-0.010171089658529236,"45":-0.07549990000438866,"46":0.0754781141252353,"47":-0.003826932408324675,"48":0.1319742891821644,"49":-0.05283604759218721}}},{"out_depth":50,"out_sx":1,"out_sy":1,"layer_type":"tanh"},{"out_depth":50,"out_sx":1,"out_sy":1,"layer_type":"fc","num_inputs":50,"l1_decay_mul":0,"l2_decay_mul":1,"filters":[{"sx":1,"sy":1,"depth":50,"w":{"0":0.01914118891067618,"1":-0.1670839984757286,"2":0.022286071158625877,"3":-0.000683126339413809,"4":0.024570524694930963,"5":0.0695384860103398,"6":0.04879226996562488,"7":0.13095590424758707,"8":-0.23130931290256837,"9":0.02038486750532258,"10":0.1433806937759239,"11":0.14364996295297378,"12":0.09117322858974064,"13":-0.22801635439088486,"14":-0.040363401991988485,"15":0.11363386594394757,"16":-0.03063251942952155,"17":-0.08892889952141389,"18":-0.07042809288994124,"19":0.2336711923089196,"20":-0.04363431597472243,"21":0.1548713875630034,"22":0.06388159353731619,"23":0.12413009166696568,"24":0.10665489722439857,"25":0.0259030693999246,"26":0.13288418662696339,"27":0.14737986134487996,"28":-0.0667372819567445,"29":-0.17526151216374874,"30":0.19469021097013198,"31":0.22423463357487042,"32":-0.0854286210061773,"33":0.1895222391503506,"34":-0.044301781984303894,"35":0.24563791761516032,"36":-0.15100402046994787,"37":0.18363047946853536,"38":0.021137484723751654,"39":0.017647475352068856,"40":0.11848707919948556,"41":0.16973764077549158,"42":-0.21259883309587777,"43":0.04156990158470189,"44":0.07032870889494201,"45":0.01764324326444323,"46":0.2055437609784974,"47":-0.052192504349298834,"48":0.16237996487996068,"49":0.2639902616524467}},{"sx":1,"sy":1,"depth":50,"w":{"0":-0.13916004519272973,"1":-0.16145895546593952,"2":0.07839162618629285,"3":-0.05821050389030034,"4":0.02661788881195329,"5":-0.1920361610539111,"6":-0.07380426374157854,"7":0.21552133733844825,"8":-0.04153023809032835,"9":-0.2987416703766999,"10":0.015643571200501392,"11":0.07933862246423141,"12":0.044378204344796425,"13":0.08296725783421702,"14":-0.08227674719788013,"15":-0.04813415081002181,"16":-0.22292971472080106,"17":0.019265105213474173,"18":0.21165713133402375,"19":0.0785579079707647,"20":-0.1807223030204458,"21":0.21036220331971864,"22":-0.21563092769019773,"23":0.09331281204023346,"24":-0.016385119543973405,"25":0.34698331423764167,"26":-0.15970836247670905,"27":0.15459553244278276,"28":-0.2037440583618856,"29":-0.32142892699402975,"30":0.06460778267303603,"31":0.14309032362672697,"32":0.08064130162893521,"33":0.09028871920545808,"34":0.05898418374449223,"35":0.1527415059113763,"36":-0.0707560408920812,"37":-0.07681996739584618,"38":-0.11341779252126498,"39":-0.09165118838981501,"40":0.016977273491016485,"41":0.1933209573940744,"42":0.05019677075661713,"43":-0.11016842202848243,"44":-0.2284830806062258,"45":0.04271189975287851,"46":0.012948936792967478,"47":0.21845406290283492,"48":-0.01174142486420569,"49":-0.010110319774854219}},{"sx":1,"sy":1,"depth":50,"w":{"0":0.1137553309509268,"1":-0.04044604847543818,"2":-0.057658417714476745,"3":-0.22825997002445572,"4":0.10890637221360923,"5":-0.17579161226460369,"6":-0.11615484612069157,"7":0.15980095041348993,"8":0.08213881887194337,"9":0.011434330334784137,"10":0.08033350260831673,"11":-0.09340812987875997,"12":0.12856320062173154,"13":-0.10036650684532501,"14":0.03251774577915232,"15":-0.22588788208090155,"16":0.00445107323228979,"17":-0.03771911327863253,"18":-0.07676841201293909,"19":0.2611628774585776,"20":-0.2604944060125985,"21":0.034175548658821976,"22":-0.14039886249173866,"23":-0.04137838265767583,"24":0.02987868180440807,"25":0.28231334555488613,"26":0.28451353064083473,"27":0.15360778796558228,"28":0.1408951448209746,"29":-0.016211059862904515,"30":0.18011079050674864,"31":0.10116564520340644,"32":0.1229739888587,"33":-0.020347328775841503,"34":0.3181183444552158,"35":0.08455548105595102,"36":-0.038862884684896994,"37":-0.10644139007795753,"38":-0.09692526728248312,"39":0.2070924258105601,"40":-0.003167062124342611,"41":-0.06028668494411685,"42":-0.06340953467292781,"43":0.05864213147996599,"44":-0.008628940999158934,"45":0.044238942437129655,"46":-0.05057167578049669,"47":0.12047443953165644,"48":-0.062002835758002806,"49":0.062480473727758036}},{"sx":1,"sy":1,"depth":50,"w":{"0":0.20056024087784624,"1":0.10900176626680133,"2":-0.07235245430285517,"3":0.15221081375181983,"4":0.0475019153358901,"5":0.029701756210956366,"6":-0.0804747306017539,"7":0.002344325040537627,"8":-0.15702372629523853,"9":-0.15058388421289798,"10":-0.2954016379771556,"11":-0.10045967567724227,"12":-0.03335633725631872,"13":0.10020589294124903,"14":0.26047112916332954,"15":0.1552655759971392,"16":0.030011147764163085,"17":-0.04897374376427265,"18":-0.10085627570214531,"19":0.14939575941956204,"20":-0.10289777542912161,"21":0.1168171689406444,"22":0.1326867748781204,"23":0.23550401186174225,"24":0.012012549144388625,"25":-0.3095382433672103,"26":-0.15303776965658109,"27":0.0103185729287268,"28":-0.07171535416948835,"29":0.010259129214377168,"30":-0.224231490150742,"31":-0.04568915264419193,"32":0.14810820205915612,"33":0.003320013548788105,"34":0.08650688475679719,"35":-0.0826569145868066,"36":0.18647265438076574,"37":0.010930180907797812,"38":-0.04531268295328962,"39":0.010925523630597745,"40":-0.13946663465310222,"41":-0.1852662806988762,"42":-0.0839931373936471,"43":0.24848399611098437,"44":-0.15012012264624222,"45":0.2661665048940208,"46":-0.02049329642188136,"47":0.07367229991485062,"48":-0.22470410045505562,"49":-0.08706778634506898}},{"sx":1,"sy":1,"depth":50,"w":{"0":0.0759923258110127,"1":0.016299953201050175,"2":-0.03297345537292353,"3":-0.12529718608148363,"4":-0.32428485300743465,"5":0.17731541153767516,"6":0.09521308031238569,"7":0.008201524263009775,"8":-0.03342365041858116,"9":0.1344965622289428,"10":-0.06761870951461166,"11":-0.001999988588881843,"12":-0.17715668545703409,"13":0.1866538750910584,"14":0.1915236774382546,"15":-0.049113683461951385,"16":-0.09738157648768304,"17":-0.26269656305248634,"18":-0.08247487060792827,"19":0.004807306490936019,"20":-0.14684211105392841,"21":0.2195729078335912,"22":0.10658089210762382,"23":-0.09458521225780979,"24":-0.06034028924769372,"25":0.1799323322537407,"26":0.28064717668314304,"27":-0.12137051743849889,"28":0.08681061443945079,"29":-0.05609712661839905,"30":-0.017578161963205458,"31":0.20260774287166702,"32":-0.0383689830540779,"33":0.12640276923580596,"34":-0.005818685011970804,"35":-0.15731849855332997,"36":0.11311444695723609,"37":0.19307165426629308,"38":0.026073247134769058,"39":-0.0012397410521678633,"40":-0.1332737127127733,"41":0.2781563354068077,"42":0.13162538808482768,"43":0.16792844632354617,"44":-0.08012521703127762,"45":-0.04500067723917475,"46":-0.5770967211639058,"47":-0.03167796433939382,"48":-0.25348005737070517,"49":-0.019079156510962127}},{"sx":1,"sy":1,"depth":50,"w":{"0":0.20420249451949568,"1":-0.12677618688848466,"2":-0.1365720362831971,"3":-0.2273286493569942,"4":0.024288011661518696,"5":-0.09029972714459744,"6":-0.023320567449870697,"7":0.11057978936928992,"8":-0.08217309192341245,"9":0.2748752890050864,"10":-0.03360836899693376,"11":0.03958933353381735,"12":-0.015982499325030108,"13":0.22538613955960618,"14":0.04889788624014564,"15":0.2323179998016751,"16":-0.15360366321822871,"17":-0.03369738009686784,"18":-0.19209788875234698,"19":0.18474724493256844,"20":0.11096048069214676,"21":-0.10433155679704957,"22":-0.20900963911152975,"23":-0.18801142050237404,"24":-0.10334549076915422,"25":0.06880453502522747,"26":0.035074190379337705,"27":0.13872885759185455,"28":0.06406337897369448,"29":-0.04489358921547574,"30":0.33362667400098583,"31":0.10145175398382883,"32":0.038803133333740726,"33":0.04832805060943585,"34":0.014319600034427168,"35":0.03841739848146281,"36":-0.11813360715923608,"37":0.08786351860069413,"38":0.07959365860662615,"39":0.07539087452008224,"40":-0.06923866476330807,"41":-0.1675283563772384,"42":0.14387067297176118,"43":0.14023819817449998,"44":-0.10274642752001056,"45":-0.011712973992891949,"46":0.052270579616031085,"47":0.14536168527208038,"48":0.22359535274246417,"49":-0.08995670798877337}},{"sx":1,"sy":1,"depth":50,"w":{"0":0.33164789379802895,"1":-0.018841676715699987,"2":0.10442634536883619,"3":-0.2221683673746732,"4":0.1217979242860141,"5":0.05987827016777816,"6":-0.019299622998455675,"7":-0.04856013921264522,"8":0.1790869149566789,"9":-0.1465775591294947,"10":0.0941428081976201,"11":-0.018058377104511792,"12":-0.033493269240720075,"13":-0.1277968435963677,"14":-0.03703449264549666,"15":-0.08044021005107216,"16":-0.05303084912883802,"17":-0.04856112439677467,"18":0.20253252983832545,"19":0.08782311198012424,"20":-0.1409216122634204,"21":-0.19668117829639314,"22":0.152166718280527,"23":-0.13849979184626088,"24":-0.16335020716993895,"25":-0.09110055035947887,"26":0.10843512574221911,"27":0.16701033826207512,"28":0.12132403167784758,"29":-0.1493476230975091,"30":0.07832899585165874,"31":0.030751970594169592,"32":-0.1629499638026385,"33":-0.17095977881024296,"34":-0.09911077645541573,"35":0.019978201681568383,"36":0.047539679248349315,"37":-0.3682465682880952,"38":0.07436272273331726,"39":0.0800420278748519,"40":-0.05916997004476186,"41":-0.07786650657930788,"42":0.14289799361674574,"43":0.1530718633540476,"44":-0.015153021791066626,"45":-0.1515280023245831,"46":-0.005069734208115894,"47":0.014552178692686542,"48":0.12975341230236725,"49":0.00823601456075035}},{"sx":1,"sy":1,"depth":50,"w":{"0":0.09682602056116055,"1":0.05898341812724185,"2":0.1158385684227536,"3":-0.09045342144764396,"4":-0.051695979714460084,"5":-0.3389219690379124,"6":-0.11710872121861729,"7":0.258744843457154,"8":0.12335459617540633,"9":0.0998920887143683,"10":0.3809824166551998,"11":-0.03770635376329222,"12":0.027585204525700815,"13":0.037799581258620256,"14":0.09088472525102649,"15":0.15968425046263615,"16":-0.24675728582564344,"17":0.12034318512040211,"18":-0.14333980165082386,"19":-0.14368537308410734,"20":0.11390269156998359,"21":0.10179674879428188,"22":-0.12039808429473386,"23":0.06345951574300902,"24":-0.11719669464387765,"25":0.25122193123617265,"26":-0.02310281404933949,"27":-0.3614635640598789,"28":0.13829477869373458,"29":-0.19837906874580438,"30":-0.11227242320966133,"31":0.11946467425989386,"32":0.09266357618077263,"33":0.1755347354058226,"34":0.07376945294628873,"35":-0.13984533990445092,"36":-0.3385997061356016,"37":-0.03918961703630082,"38":-0.09774356506235284,"39":0.10013350491334151,"40":0.0027787507691623132,"41":-0.05986469585637327,"42":0.16261505432506568,"43":-0.15625795483954286,"44":0.11088450175407853,"45":0.1584245010431242,"46":-0.08480950703095455,"47":-0.09178965929132314,"48":-0.11664382511938563,"49":0.12218929908213523}},{"sx":1,"sy":1,"depth":50,"w":{"0":-0.15750540721368858,"1":0.041665043318057884,"2":-0.12781320862401924,"3":0.06816314167588107,"4":0.00397684130154181,"5":0.08208051034387466,"6":-0.16885359909227973,"7":0.004238811547783468,"8":-0.03690404376503229,"9":-0.0773672469027057,"10":0.15036346389996721,"11":0.1931120012600751,"12":0.012967792818122027,"13":-0.25130956750907585,"14":-0.0007453197461904501,"15":0.058330012350231886,"16":0.04112799728753986,"17":-0.0972543405595475,"18":0.09450650317724398,"19":0.3437913277861465,"20":-0.24649036861034862,"21":-0.12679354951450178,"22":0.11029788374013395,"23":-0.1232474972976479,"24":-0.21691870862745546,"25":-0.03391789507701927,"26":0.23763622130731432,"27":0.18143797994571345,"28":0.04269424909555396,"29":-0.15994903907921482,"30":0.07310389958670493,"31":0.1759323273733016,"32":0.12874756017334946,"33":-0.03330112193014388,"34":-0.10510371555336821,"35":-0.07367321573973726,"36":0.017187693987257602,"37":0.11637096202001067,"38":-0.23179499741595108,"39":-0.056480004238119316,"40":0.025035446519839976,"41":-0.2023096541568985,"42":-0.17130479815783942,"43":-0.010493480306794692,"44":0.02606101006027171,"45":-0.16886025401822502,"46":0.04957805907826616,"47":0.09287727277318876,"48":-0.001969947948012739,"49":-0.039409272997701854}},{"sx":1,"sy":1,"depth":50,"w":{"0":-0.002071319523728099,"1":0.15343774288925216,"2":-0.07843106727973422,"3":0.1627448789004385,"4":-0.002903425384805128,"5":0.04146361157877722,"6":-0.019551099543799445,"7":-0.243767316588995,"8":-0.03271579066307715,"9":0.014876658751914016,"10":0.03736443253082056,"11":0.13345367950873305,"12":0.3539601401472328,"13":-0.14054166090049935,"14":-0.021222660103441066,"15":-0.03772321377629599,"16":-0.0873727859113458,"17":-0.11565930736679059,"18":0.04617081909531919,"19":0.19399079945995104,"20":-0.043200315971571486,"21":0.14030166865456392,"22":-0.10857030479364381,"23":-0.06439099597134942,"24":-0.22232415922690388,"25":-0.012747115708623552,"26":-0.040608172895633586,"27":0.18370761752151102,"28":0.1034303620378104,"29":-0.15846546615192236,"30":-0.05530540326613855,"31":-0.13864347345970274,"32":-0.22712400698254556,"33":0.08474912872556888,"34":-0.188584477293966,"35":-0.09118564750743068,"36":-0.19744942491716402,"37":0.11627900614106526,"38":0.08071805598916106,"39":0.02258908870496891,"40":-0.10836812891984697,"41":0.11983626183096868,"42":0.01163630880221123,"43":0.019695963765054475,"44":-0.3137083447665788,"45":0.019323990553719295,"46":0.07083450796282334,"47":0.1515577381800308,"48":0.20722558235008728,"49":-0.18236178007815812}},{"sx":1,"sy":1,"depth":50,"w":{"0":0.010662628908359655,"1":-0.18538531243338904,"2":0.2870750117780566,"3":0.09163567052847217,"4":-0.056352892328359744,"5":0.0018062081671909147,"6":0.06691416958865708,"7":-0.10164927184190937,"8":-0.012567179451116536,"9":-0.13047134150134004,"10":-0.16017263605260446,"11":-0.03998410067724129,"12":0.08192154514815678,"13":0.11031567109224236,"14":-0.032786018335586295,"15":-0.04306745564203273,"16":-0.060780571891533006,"17":-0.04703000400139092,"18":0.013812851693115583,"19":-0.05297917363698243,"20":0.034781582684618596,"21":-0.07466683294796056,"22":0.08866063784238278,"23":0.17554562623412104,"24":-0.13346361095107961,"25":-0.026924067942720547,"26":0.18279876500238296,"27":0.1023681810952795,"28":0.16177506322426183,"29":-0.18303904083953063,"30":-0.10578612325079098,"31":0.007456983829614627,"32":0.02878882101075212,"33":0.07592315320349342,"34":-0.07811224874829703,"35":-0.11415424166112574,"36":-0.11607872730408585,"37":-0.03119882835178618,"38":0.018204364961978893,"39":0.1431244171383612,"40":-0.11154895289237231,"41":0.18176851228120336,"42":-0.09588412475185047,"43":-0.053185795879279504,"44":-0.2157359302103151,"45":-0.09632824133355797,"46":0.026829477991375906,"47":-0.11005928345860856,"48":0.15715450524511562,"49":-0.0363746617352943}},{"sx":1,"sy":1,"depth":50,"w":{"0":-0.34044187896115263,"1":-0.06990748611595271,"2":0.238584551357442,"3":-0.26657357955114236,"4":0.05468668766652185,"5":-0.2075813921047377,"6":0.18573201259210462,"7":-0.005067210595383132,"8":-0.2470900934394632,"9":-0.25576551149457105,"10":0.08947859287051638,"11":-0.06829607460479367,"12":-0.008015385869834711,"13":0.16969480514783472,"14":0.050787164239945996,"15":-0.1888831828957066,"16":-0.08753791682234842,"17":-0.1014514884641694,"18":-0.0739581926343712,"19":-0.05801185217726669,"20":-0.2587097328651746,"21":-0.11811197154980133,"22":0.1294135191626166,"23":0.13974400486873145,"24":0.02187178251470848,"25":-0.047627555550829356,"26":-0.10301413170833948,"27":0.17637220128411585,"28":-0.18581944026362987,"29":0.09152791958430118,"30":-0.14752046290078147,"31":0.060312122931284996,"32":-0.132680460264119,"33":-0.24032881614637733,"34":0.021753751256069764,"35":-0.1422110951451245,"36":-0.04599913576307943,"37":0.2236313545232449,"38":-0.02928847046177165,"39":0.03281584034309318,"40":0.13603764916781536,"41":0.010466722121098563,"42":0.16919226648146377,"43":-0.04697495521540351,"44":0.20489296761231718,"45":-0.0015861742332039552,"46":-0.13207249868721566,"47":-0.3010805099933628,"48":0.14398699850011062,"49":-0.010828894110079902}},{"sx":1,"sy":1,"depth":50,"w":{"0":-0.1936694523473344,"1":0.09972054636824716,"2":0.07169556415026841,"3":0.1768514610493399,"4":0.009907374567007271,"5":0.11716771555415825,"6":0.015508247934533786,"7":0.1951577531586037,"8":0.2059608426694749,"9":-0.09272734434006877,"10":0.09636722497795937,"11":-0.1278604488051561,"12":-0.046619150621440474,"13":-0.11215519491231038,"14":-0.2239500421466644,"15":-0.2416301930543984,"16":0.15603086748151726,"17":0.03393894963535773,"18":0.0047265197505890946,"19":-0.3303162231220296,"20":-0.09527748754497195,"21":0.022990915548822075,"22":-0.26656497668642604,"23":-0.1593378543517097,"24":0.1584042480942392,"25":0.1518855962475862,"26":-0.2663341560741665,"27":-0.11966548721502415,"28":0.09557373740594928,"29":-0.1910009809410423,"30":-0.1148432084873627,"31":0.09685384849088369,"32":-0.04805495151804743,"33":0.06008716628735718,"34":-0.08759903958859722,"35":0.2836803566703593,"36":0.15434396499870637,"37":0.06590920781661704,"38":-0.15635766165933623,"39":-0.09884878245620003,"40":-0.08003044011396185,"41":-0.018375133087914153,"42":0.19539959290421322,"43":0.15451031163538065,"44":0.003516978076492928,"45":0.006234286424060191,"46":-0.25470115444675145,"47":-0.11707412406937552,"48":0.07505281387281898,"49":0.01076770775797482}},{"sx":1,"sy":1,"depth":50,"w":{"0":-0.18377870968394766,"1":-0.1608832976890004,"2":-0.1433864453817158,"3":0.06608317010211788,"4":0.18990447938251914,"5":-0.14348573455392666,"6":-0.12066711825865639,"7":0.02397372548667516,"8":0.13426357936611238,"9":0.14805417149950084,"10":-0.15233771113100475,"11":-0.1755049598800068,"12":0.18956135971185717,"13":-0.051944333365021154,"14":0.05402786735111642,"15":0.14793765549254048,"16":0.1617814207508677,"17":-0.0004932268079170488,"18":0.17295758099638456,"19":0.22869257614345379,"20":0.04200015379397313,"21":-0.025933727978530444,"22":-0.16238807575206618,"23":-0.14695553422387114,"24":0.01580498348933414,"25":-0.06376241770977319,"26":0.0031052637999322286,"27":-0.23658522633961807,"28":0.39413378248992204,"29":0.25841106478331083,"30":-0.26765529572563745,"31":0.04985942042078795,"32":-0.04457889938112505,"33":0.07822654287663384,"34":-0.0651537316090069,"35":-0.12134845804060658,"36":0.05815453486445432,"37":-0.17652594160148127,"38":-0.10120499275187451,"39":0.3072809744427999,"40":0.15473312943435655,"41":0.20187344380581793,"42":-0.07495125613783196,"43":0.053130210258130056,"44":-0.08982786272754387,"45":0.13665007512346458,"46":-0.05229440972558842,"47":-0.10421026835020873,"48":-0.018907085693780582,"49":0.07950037079321773}},{"sx":1,"sy":1,"depth":50,"w":{"0":-0.008241564214576787,"1":0.026793749836926322,"2":0.002343874605585956,"3":0.0785242778858934,"4":-0.01898263804738468,"5":-0.05477158221596442,"6":-0.0865389779669422,"7":-0.005719980936753286,"8":0.07684547928614809,"9":0.07959190911263013,"10":0.15638820074673004,"11":0.06307664406070583,"12":0.022924808870134483,"13":0.04318014316347071,"14":-0.0716798227952593,"15":-0.04521766005835952,"16":0.19166093498876668,"17":0.05954623300330044,"18":0.010177535498013885,"19":0.04116833485830969,"20":-0.17494278826903228,"21":-0.3297350661664923,"22":0.08240476327271028,"23":-0.020091129170594507,"24":-0.05556753399438605,"25":-0.286123772118251,"26":-0.18605329592719774,"27":-0.022441840727674685,"28":0.06033438739087773,"29":0.08622085795184858,"30":-0.11190147728714195,"31":0.02647285917486797,"32":0.2876397545000546,"33":0.22873371362396644,"34":-0.13558779828552436,"35":-0.34344304030048056,"36":0.11984689401151538,"37":-0.1355448430954022,"38":0.0000873358039302837,"39":0.16966599265970658,"40":-0.0627849444038272,"41":-0.09503513989064429,"42":-0.23261399359545484,"43":0.04066721044274797,"44":0.03062818032947677,"45":0.03589504730429966,"46":-0.11824857457645675,"47":-0.2071871992851956,"48":0.08546931004473278,"49":-0.038602696045440886}},{"sx":1,"sy":1,"depth":50,"w":{"0":0.08120911694418807,"1":-0.035938884781810704,"2":-0.08272299475263632,"3":-0.17467016843455868,"4":-0.2271662379384992,"5":0.16641440230672816,"6":-0.15461782111469446,"7":0.342529110967445,"8":-0.017818002059278245,"9":0.04353172178355475,"10":0.11625399521293882,"11":-0.06721416205294721,"12":0.09416112416439437,"13":0.23006595724029774,"14":-0.02920253333653097,"15":0.26767273142492093,"16":0.1549956111071025,"17":-0.0683898454089268,"18":0.15726518518069166,"19":0.04618295804469754,"20":0.008545331216881663,"21":-0.18689465480183942,"22":-0.07309944828072698,"23":-0.2671320557345273,"24":0.026044742713486828,"25":0.06666705518890137,"26":0.07992222449281913,"27":-0.0425705953625205,"28":0.10118113808838892,"29":-0.07519701089732767,"30":0.1568934581375212,"31":-0.1569415951666514,"32":0.2170919984049563,"33":-0.03351861155404349,"34":-0.06728006581812393,"35":0.09622334552705765,"36":-0.28130992749018696,"37":0.11305005008754923,"38":0.11130663922945097,"39":-0.06730783280216579,"40":0.06314011001999174,"41":-0.07364423445449586,"42":-0.08639915546274886,"43":-0.1195991058851856,"44":-0.06000063735534028,"45":-0.03791950438634894,"46":-0.04515181366897166,"47":-0.028799945776504278,"48":0.08408808005636194,"49":0.09701184235954115}},{"sx":1,"sy":1,"depth":50,"w":{"0":0.2050260609094618,"1":-0.16939131012830552,"2":0.054739028420074866,"3":-0.2569835392379112,"4":-0.147910839116088,"5":0.026067840689141787,"6":0.15426270834709577,"7":0.1029713889411526,"8":0.04037896935033213,"9":-0.14130616970730284,"10":0.14418780175829726,"11":0.20193344104925198,"12":-0.10610570771441764,"13":-0.051195956250815466,"14":-0.24073752618022953,"15":0.18718505162735113,"16":0.12426418343447515,"17":0.13466047685963925,"18":-0.009057943442575184,"19":0.13527431713391422,"20":-0.024273360372486032,"21":-0.013022521706548948,"22":0.15509680145017907,"23":-0.11573463113387829,"24":0.0007397940694944087,"25":0.055218365171948405,"26":-0.1920508022134972,"27":0.07478664327247435,"28":-0.11098045643824654,"29":-0.11840611715403766,"30":-0.023591429452652357,"31":-0.28075800129769946,"32":0.09072048111826002,"33":0.25756068098217644,"34":0.065279867823727,"35":0.01756300899863759,"36":0.07092218850333398,"37":0.04146012562901519,"38":-0.30992475267342395,"39":-0.32404642007266854,"40":0.212329099994432,"41":-0.04527776521565677,"42":-0.2261132167215571,"43":0.12533914326791804,"44":0.166480489185022,"45":0.14920917375204068,"46":-0.0027547305394534966,"47":0.10427279699603179,"48":-0.264160726559071,"49":-0.2572055786709077}},{"sx":1,"sy":1,"depth":50,"w":{"0":0.027317168470782697,"1":-0.1520219432743507,"2":-0.14826861776455066,"3":0.10916416565772052,"4":-0.22076124960060967,"5":0.3709013740757838,"6":-0.061132543822336814,"7":0.027966595254808012,"8":-0.10167778831918398,"9":0.017641421632422924,"10":0.1314789021527705,"11":-0.023638521574332706,"12":-0.11070929257734344,"13":0.07611358627976826,"14":-0.07658934073959937,"15":-0.24554072624708223,"16":-0.09846574727431946,"17":-0.0985457960226454,"18":0.027822503010722997,"19":-0.04412732465772626,"20":0.18718764547875333,"21":-0.010165400834293466,"22":0.059378032394138136,"23":-0.11707621514195245,"24":-0.08372065261998933,"25":-0.2645360761820094,"26":-0.1690192446903455,"27":-0.06183099821533725,"28":-0.2386589025762049,"29":-0.11593927237787725,"30":0.2672474568944827,"31":0.16111249551719328,"32":0.021394545301071165,"33":-0.1899953406977072,"34":0.040698512304602946,"35":-0.08585427012178182,"36":0.09409605406080113,"37":0.06720164973334025,"38":-0.049892162726339666,"39":0.1944583168066512,"40":-0.11724779048544651,"41":-0.173337628615842,"42":-0.07726298634050624,"43":-0.12645596083820237,"44":-0.3170055784098513,"45":0.2689563836245689,"46":0.21628827712898208,"47":0.08060591417426297,"48":0.13155058951731455,"49":0.12088910384825284}},{"sx":1,"sy":1,"depth":50,"w":{"0":0.01789604957784358,"1":-0.022008015357742976,"2":-0.19557146451430898,"3":0.09459802653507972,"4":0.002601626916178171,"5":0.15188182952125714,"6":0.04295702417519713,"7":-0.031713516908987854,"8":-0.2720403080630496,"9":0.09969665651426733,"10":-0.09190265721634107,"11":-0.16799242135094508,"12":0.16823227354098966,"13":0.13235551335584156,"14":0.27590639258324545,"15":0.013284676496834968,"16":-0.05042265954472316,"17":0.3453140853314892,"18":-0.06550849077922298,"19":-0.10650352686383226,"20":-0.07234650241486149,"21":-0.13941080082952012,"22":0.10053917686102791,"23":0.13679305396249336,"24":-0.2602271366568556,"25":-0.10155675023347101,"26":0.0441095272605451,"27":0.1474345926340402,"28":0.05802578849246988,"29":-0.10902952166762504,"30":-0.21955978198058768,"31":-0.31456969558214576,"32":-0.06872524969344693,"33":-0.030989961460012833,"34":-0.16096668451597276,"35":-0.10599513546360276,"36":-0.14069577484194626,"37":0.25748183317296486,"38":0.07822047065174927,"39":0.056932768268911776,"40":-0.07912399670750586,"41":0.2344547680398319,"42":-0.01292678587275328,"43":0.10191314257120311,"44":0.09591583192836088,"45":-0.006101271136316598,"46":-0.12553561058503926,"47":-0.14687541354079026,"48":0.12512376017746163,"49":0.054725254374432014}},{"sx":1,"sy":1,"depth":50,"w":{"0":0.021490701348613316,"1":0.20026621690872315,"2":-0.09764496393598626,"3":0.16490569327595156,"4":-0.0046634516933271915,"5":0.21397153943788913,"6":0.1539516744543702,"7":-0.15911649772311662,"8":-0.21443898185116667,"9":-0.016256177581453726,"10":-0.13498520665764893,"11":-0.037746955633781235,"12":0.15533837103181106,"13":-0.06997774790289124,"14":-0.0007145374516666924,"15":0.14733361858381117,"16":-0.003461345026408329,"17":-0.09058261532263719,"18":0.03799645501157927,"19":-0.07515284949631376,"20":0.07206785933102143,"21":0.018086450796048273,"22":-0.035255005265012206,"23":-0.07439387698937033,"24":0.10273486722007169,"25":0.06968431058354843,"26":0.24731044085807868,"27":-0.04174116475356592,"28":-0.057815603705295066,"29":-0.06529941307609076,"30":0.07907073299785351,"31":0.12371832534947103,"32":0.10941041749573316,"33":-0.12462809896543933,"34":-0.10948341584465969,"35":-0.006555328259555662,"36":0.09502116545492041,"37":0.005674954566398883,"38":0.2049630872285191,"39":0.024603851640226077,"40":-0.044534065003786996,"41":-0.02847542614843211,"42":-0.14796442649960687,"43":-0.07736839375082967,"44":0.1924393805072482,"45":-0.27998456316783216,"46":-0.2546339997607233,"47":-0.2267758193662921,"48":-0.11596906769926818,"49":-0.046201027194285926}},{"sx":1,"sy":1,"depth":50,"w":{"0":-0.21844760240896177,"1":0.12531570311196896,"2":-0.014708147539947841,"3":-0.25045018262242985,"4":-0.009600119748657184,"5":0.008540969277776771,"6":0.09438979502362324,"7":0.13206423962283556,"8":-0.07395313302514359,"9":0.17134414981169227,"10":-0.03165825985723967,"11":0.12371007124294665,"12":0.3858876795286202,"13":0.11616210291831972,"14":0.0931782835800247,"15":0.185333454903802,"16":0.12332246953123788,"17":-0.2222862793718388,"18":0.19149326147859164,"19":0.12608959973165793,"20":-0.01902324125440669,"21":0.1595818529189105,"22":0.08212095060995071,"23":0.03482624908546487,"24":0.17095008343450727,"25":0.0738622663410543,"26":0.023998901096697802,"27":0.05029941572936349,"28":0.18353867727516995,"29":0.20127179359202127,"30":-0.019417921864030904,"31":0.17707901510617266,"32":0.11068639847798695,"33":-0.12670925921219442,"34":-0.1145422254609532,"35":0.05912218396711204,"36":-0.1700671993127586,"37":0.022176832922167315,"38":0.011718783629949495,"39":0.01992407539939032,"40":-0.0018007948657507975,"41":0.21764665032997701,"42":0.09612723398732062,"43":-0.052801071155550425,"44":-0.10857102321883921,"45":0.018233312187896224,"46":-0.06568168750292985,"47":-0.0723297003781635,"48":-0.19612031307989958,"49":-0.2711368583160223}},{"sx":1,"sy":1,"depth":50,"w":{"0":-0.2374714635828338,"1":-0.22730824500089478,"2":-0.24688716742009376,"3":0.12943033754759464,"4":0.1904477151473986,"5":-0.048284542966066685,"6":-0.04133290845299635,"7":-0.17714132075681047,"8":-0.09516472920261058,"9":-0.08911733398100577,"10":-0.10966560662755277,"11":0.16480695769544565,"12":-0.030750275356204983,"13":0.2212857617109274,"14":0.0007965647756312186,"15":-0.014905380973721861,"16":-0.036510959007532144,"17":0.05928885764141655,"18":0.11595102192755102,"19":0.08686758163842,"20":-0.02578294675899872,"21":0.017572341778233674,"22":-0.08510224755041208,"23":0.07621871294021057,"24":0.061302607994861875,"25":0.11565149871081733,"26":0.17718778949551653,"27":0.09705860162943972,"28":0.10252357402563797,"29":0.12530309407074747,"30":-0.08554765086583174,"31":0.20429751014258601,"32":0.15773866590421234,"33":0.16504456159908923,"34":-0.30249854837697737,"35":0.12568292330243022,"36":0.06265360364174523,"37":-0.08762502108740436,"38":-0.034668315149631784,"39":-0.023937214896765893,"40":0.09784242243014582,"41":0.1878030548690869,"42":0.21787541617851075,"43":0.1472330702841748,"44":0.19044578816163252,"45":0.28260145716847496,"46":0.09147749067092462,"47":-0.16040534128338935,"48":0.07479513556420775,"49":-0.05606755430083208}},{"sx":1,"sy":1,"depth":50,"w":{"0":0.18322991365682928,"1":-0.18299704555450946,"2":0.13274926875973606,"3":0.13251424616873844,"4":-0.13430432159743455,"5":-0.07142376740761157,"6":0.05265251734251628,"7":0.007154065838771402,"8":-0.19115666654290242,"9":-0.009943013468017164,"10":0.039059975401311356,"11":-0.11917200390278244,"12":0.08904353816456304,"13":0.1680348130138975,"14":-0.13872009608367178,"15":-0.06643556208811405,"16":0.05322976706125295,"17":-0.16773049698480771,"18":0.20341611938468887,"19":-0.15186805257734792,"20":-0.22196960540540575,"21":-0.014530732242278216,"22":-0.1549966940529477,"23":0.06637746213978235,"24":0.1883672145673046,"25":0.006869532681825325,"26":-0.13929379791047208,"27":0.18906042814467441,"28":-0.30662893228903954,"29":0.12652542975352282,"30":0.1665947366977582,"31":0.2533393084730799,"32":-0.08287664697425899,"33":-0.07351170029054467,"34":0.09507152009411222,"35":-0.26711399462574126,"36":0.028860627850258398,"37":-0.17365042570267278,"38":0.226425343163169,"39":0.12075227567918793,"40":0.0562427300970464,"41":-0.12351260318716949,"42":0.3489942349332586,"43":-0.017339292277879125,"44":0.07904067836652709,"45":0.16858198240619796,"46":-0.09042846819043043,"47":0.06949424804054312,"48":-0.013124603032019354,"49":-0.14843745408421846}},{"sx":1,"sy":1,"depth":50,"w":{"0":0.010772988175735016,"1":-0.28063266383273694,"2":-0.1920423195344346,"3":-0.1723942951553957,"4":-0.29967945897329096,"5":-0.007943081374627185,"6":0.06646013023414737,"7":0.1345801429465951,"8":-0.07979787779784547,"9":-0.075303537401338,"10":0.05285406202688268,"11":0.1790893943856214,"12":0.1758674186869985,"13":-0.14439706671719105,"14":-0.058856171318771446,"15":0.12329125718511966,"16":0.1728243689161104,"17":-0.18366133937340423,"18":-0.10231710234975737,"19":-0.1924710067288974,"20":-0.03811794543524033,"21":-0.16990916781740897,"22":-0.3389562711532841,"23":0.009362126908863873,"24":-0.14882964712164312,"25":0.13723530513309037,"26":-0.22574262913328283,"27":0.008593638546771594,"28":0.16634079107727226,"29":0.02003641508010269,"30":0.05431468233448477,"31":-0.02362686841822187,"32":-0.4757486785223015,"33":-0.2167876840428874,"34":-0.16271979992395674,"35":-0.11395414208758767,"36":0.047004181739022356,"37":-0.11685932745430028,"38":-0.23007143280388587,"39":-0.06120392071755475,"40":-0.011194242768054294,"41":0.07924829708614047,"42":-0.19867835538300516,"43":-0.11849394327689276,"44":0.09201432765144202,"45":-0.035546408064285995,"46":0.18636721907959475,"47":-0.10493778557619778,"48":0.05500095390634225,"49":-0.2385696386917976}},{"sx":1,"sy":1,"depth":50,"w":{"0":0.05058892948161137,"1":0.06571707556215366,"2":-0.0889294782315044,"3":0.006825073056484611,"4":-0.2299927827184608,"5":0.2852200884793355,"6":-0.09007575924657142,"7":-0.2326470833516428,"8":0.04930689290320394,"9":-0.05307689710279377,"10":0.29852120317475594,"11":0.15487406701846734,"12":0.1426844122800212,"13":-0.06452025722096327,"14":0.056948631452263435,"15":-0.0015381920629709035,"16":0.11347494163420677,"17":-0.12218747973907836,"18":0.014282998041526466,"19":0.07046345916712674,"20":-0.0648511290914161,"21":0.16056124087238477,"22":-0.1959975490170747,"23":-0.13566914793160775,"24":-0.18485787470995355,"25":0.06769581031478074,"26":-0.023740034421146992,"27":0.031737338412352274,"28":0.04606170265140032,"29":0.24199217894770494,"30":-0.08976744602615516,"31":0.00805571406385933,"32":0.1339587918279069,"33":0.04558449823736143,"34":0.13961062262222135,"35":0.010338226812494616,"36":0.09953198423230451,"37":0.2807878105258749,"38":0.26009679417194753,"39":0.08784158542955364,"40":0.13869825680615144,"41":0.21397702527111018,"42":-0.06459523260862945,"43":-0.4095796933953589,"44":0.296589453471189,"45":0.04101579226170698,"46":-0.005966048968866528,"47":0.06020382615105859,"48":0.13776422160130217,"49":0.18007206064149384}},{"sx":1,"sy":1,"depth":50,"w":{"0":0.044510505197103534,"1":0.04862509126004669,"2":-0.3338249620433201,"3":-0.10053266448667691,"4":0.15573814484074666,"5":0.08035035268784713,"6":0.10333639700793329,"7":-0.06127049073235647,"8":-0.10459151399396734,"9":0.11803086434780724,"10":-0.06310412469990961,"11":0.17476454660466392,"12":0.0620963869007653,"13":-0.059919249695573544,"14":-0.20656183502450431,"15":-0.0953949955169518,"16":0.1010009273652829,"17":0.1724151959963204,"18":0.04992206433098063,"19":0.04848844848376094,"20":-0.08109393786330123,"21":-0.016166660953089402,"22":-0.10575674025937704,"23":-0.0004285090604563371,"24":-0.06141401043231,"25":0.3498294932906313,"26":-0.10700784856895627,"27":-0.07884605659251387,"28":0.03989822632071861,"29":-0.05341151870484601,"30":0.2486355547919018,"31":0.21420343210090398,"32":0.22419070371091704,"33":0.11032586757790017,"34":-0.2472311975984511,"35":-0.10200344219870025,"36":-0.19233785425103728,"37":-0.004596510009524526,"38":0.22810245852996863,"39":0.021673991534091188,"40":0.009493080982646155,"41":0.15447527455002172,"42":-0.04018895607649379,"43":0.38053547413168914,"44":0.08862590073110477,"45":-0.013942076316324336,"46":0.10579870590129895,"47":-0.04969166478874933,"48":0.07569898533736628,"49":-0.1461700090099443}},{"sx":1,"sy":1,"depth":50,"w":{"0":-0.09894837421125151,"1":0.03319015076398698,"2":0.12223890120359548,"3":0.10767794691899533,"4":0.08133141340556493,"5":0.1984817321329917,"6":-0.1485188920730123,"7":-0.08956275810403697,"8":0.07142454511030007,"9":0.019476706408845496,"10":0.26585918524145946,"11":0.3352085110160292,"12":0.21687571075265974,"13":0.07753557951614297,"14":0.27561727424760807,"15":0.22705194517709185,"16":-0.07179606000483947,"17":-0.0751499043652059,"18":-0.023682047163528765,"19":0.012915530061559004,"20":0.20902460881858173,"21":0.12488900050684137,"22":0.1271060055262944,"23":0.1402638822562072,"24":-0.03302997788660049,"25":0.014574577946553882,"26":-0.053939986499948876,"27":-0.16587646892304825,"28":-0.0063708059395790875,"29":0.13756237324541704,"30":0.1573170681159632,"31":0.0023646600996658886,"32":-0.1376849846109068,"33":0.20432467637459847,"34":-0.030726205257843798,"35":0.04607047064150406,"36":-0.05010733243338675,"37":0.07928638677096495,"38":-0.049058010175305526,"39":0.014076279104097585,"40":-0.21834936593112833,"41":-0.03805624151628793,"42":-0.0470340701845974,"43":-0.10509136776258875,"44":-0.06319386960903901,"45":0.10814662937571047,"46":-0.0616405998275305,"47":-0.22375435345733632,"48":-0.2693801845912222,"49":0.15089079043747122}},{"sx":1,"sy":1,"depth":50,"w":{"0":0.14307300042997925,"1":-0.02220812875491817,"2":-0.399291065663539,"3":0.07785988635558114,"4":0.10583456450197634,"5":-0.40200140851473,"6":0.13410273501973133,"7":0.1081296874539027,"8":-0.12501589602102847,"9":-0.009628555917773523,"10":-0.138519057291217,"11":0.12342904896220429,"12":0.039938527050062685,"13":0.07666156617183506,"14":0.05817120037864317,"15":0.16135239610344201,"16":0.15393281963557218,"17":0.1397116409514326,"18":-0.02884813536761286,"19":0.03623552038931638,"20":-0.1669261893546441,"21":0.1455398370329401,"22":-0.011875695244548427,"23":-0.011129499966471872,"24":-0.005209584916328387,"25":0.06409280172687395,"26":0.253660760811801,"27":-0.08643357755645777,"28":-0.06348194622998317,"29":-0.03385538995524528,"30":0.12022811629675233,"31":0.06343512093029303,"32":0.10991302612670505,"33":-0.0028995853792614288,"34":-0.03233707023035849,"35":0.07216533827969572,"36":0.06941704353686282,"37":-0.14364035479296589,"38":0.12635769264283467,"39":0.011521363770425548,"40":-0.07202044087623737,"41":-0.06347276551818874,"42":0.04760679154469248,"43":0.3126762313804682,"44":-0.10156646896172176,"45":-0.03716375971098836,"46":-0.1625624490795413,"47":0.35111937902842,"48":0.05536315460721313,"49":-0.1371214136519688}},{"sx":1,"sy":1,"depth":50,"w":{"0":-0.23881803400408716,"1":0.04773521467291274,"2":0.14216533535597053,"3":0.2753679988312086,"4":0.18793110471153032,"5":0.08053284890670442,"6":0.02624064186337997,"7":-0.05828667735199138,"8":-0.07839290834745646,"9":-0.076290971504428,"10":0.2607814492850221,"11":-0.16447750742860348,"12":0.0510852670041544,"13":0.0992727422526964,"14":-0.11442894362306562,"15":0.02160443689894885,"16":-0.04874738399333934,"17":0.06933822810168627,"18":-0.30612912465255454,"19":0.06539598396106158,"20":-0.08741630544214098,"21":0.15133697301791504,"22":-0.2063861150868489,"23":0.04346542837213311,"24":0.02361276055290097,"25":-0.09048541783980447,"26":-0.21506979705090257,"27":0.014906095584730219,"28":-0.12741946896055326,"29":0.01051695882275147,"30":-0.23907327408747023,"31":-0.16631547063535038,"32":0.19358078171615511,"33":-0.2781761832121731,"34":0.058188789347942346,"35":0.059155652020161764,"36":-0.21045664263475816,"37":-0.03421402314748585,"38":-0.025774733402735818,"39":-0.020722024120058413,"40":-0.10170111805109272,"41":-0.16068852776706796,"42":-0.14590559140852874,"43":0.015116405198795816,"44":0.42397902533341897,"45":0.07240313137636929,"46":-0.17103480658827672,"47":-0.06514432993578508,"48":-0.006053023917557964,"49":0.08781742590264903}},{"sx":1,"sy":1,"depth":50,"w":{"0":-0.006617057980690427,"1":-0.08695148091955428,"2":0.004269835622035459,"3":-0.007758041653879517,"4":-0.010225288107974087,"5":-0.13914671140386883,"6":-0.04768349139603433,"7":-0.1642068239009615,"8":0.19044567305532842,"9":-0.016234854727951855,"10":-0.12108121104056349,"11":0.08793156705018598,"12":0.054869877696741856,"13":0.041385277616737506,"14":-0.062213989788877454,"15":-0.24333194053592389,"16":0.06995177503509471,"17":-0.03637062707961231,"18":0.06701474539038588,"19":0.02332213403006648,"20":0.004563568624602039,"21":0.16387232994106685,"22":-0.1513217916116602,"23":-0.10899060849530208,"24":-0.14651160991388593,"25":-0.2349136770363486,"26":-0.2925387007873143,"27":-0.15888611760795518,"28":-0.1221725798243028,"29":0.10649834231941151,"30":0.056086535319790395,"31":-0.014370458232785866,"32":-0.11031297566901743,"33":0.029402879665439082,"34":0.25839553911027796,"35":-0.27827310532695615,"36":0.1582361911427415,"37":0.0992624421290146,"38":-0.05660696351290761,"39":0.09891387283573047,"40":0.34518855088002065,"41":-0.12896556131742287,"42":-0.12094260535184656,"43":0.008067367300328032,"44":0.087250970977751,"45":0.15356171241299157,"46":0.029956618125644034,"47":-0.204284993352276,"48":-0.05199012644285431,"49":-0.056472782865089555}},{"sx":1,"sy":1,"depth":50,"w":{"0":0.07353040888812147,"1":-0.17238778529735868,"2":0.03856843088712175,"3":-0.0035603700190155515,"4":0.07432402738163597,"5":-0.057819916770374936,"6":-0.03771227796432902,"7":-0.13290425423168786,"8":0.1040406534276089,"9":0.06771370928880974,"10":0.047277855161657084,"11":0.20804194042208726,"12":-0.008190469120406652,"13":0.020348184503125907,"14":0.06307857654098543,"15":0.21651850243200904,"16":-0.08795237914915145,"17":0.06686390561568957,"18":-0.05840613241439554,"19":-0.09605570844028463,"20":-0.02979794430212668,"21":0.1177205027538136,"22":-0.19418532834323174,"23":-0.0344366532922171,"24":0.016489370383107414,"25":0.004188958370598785,"26":-0.06166603690847969,"27":0.11561205756228828,"28":-0.005286410130631752,"29":0.10876918495351984,"30":0.15986457329998344,"31":0.027739859457803957,"32":0.02880325041833008,"33":0.034681892882609026,"34":0.14705613898927888,"35":0.06685097987602218,"36":0.06831207508861087,"37":0.2313715912904157,"38":0.2247461872620598,"39":-0.008895398795890401,"40":-0.22035817005010816,"41":0.016298307658756398,"42":-0.007865509961916355,"43":-0.03284777190114741,"44":0.06397619251870869,"45":0.20578890724846235,"46":0.11205560981226878,"47":-0.24671039580683923,"48":0.06166305292973643,"49":-0.22464829765303834}},{"sx":1,"sy":1,"depth":50,"w":{"0":-0.02155950622038364,"1":-0.06260207444055454,"2":-0.08948883433351196,"3":0.025201778020434266,"4":-0.29935243597774686,"5":-0.3755173734545592,"6":-0.04464880033885527,"7":-0.1815760846367645,"8":0.240429163067706,"9":-0.056206150337334164,"10":0.022323124851452904,"11":0.07372405001736253,"12":0.27467717131918895,"13":-0.20550030634206437,"14":-0.07078423927366283,"15":-0.056073015723747,"16":0.1779125449880195,"17":-0.15921415631677638,"18":-0.16938085401558842,"19":0.03794183041537731,"20":0.30660108616496434,"21":-0.04852591481826487,"22":-0.12127998187290058,"23":0.11607426506672949,"24":-0.010349959114470987,"25":0.2746934809374682,"26":0.0858765567660543,"27":0.11779418970831587,"28":0.23576469902917935,"29":-0.07202727540316191,"30":0.2149774609135018,"31":-0.00939154130834256,"32":-0.1710778754834915,"33":-0.18048875159904862,"34":0.05392529541836367,"35":-0.25234613035191894,"36":-0.17905974255583798,"37":0.1121763814285295,"38":0.14078745956291186,"39":0.0763058469452401,"40":0.02641182930043938,"41":-0.13142884740524985,"42":0.0714382838419839,"43":0.11694300861568098,"44":-0.1333085369301169,"45":-0.23319563844418692,"46":-0.2012814955993499,"47":0.010567324738142378,"48":0.1674748949541837,"49":-0.08965170238483942}},{"sx":1,"sy":1,"depth":50,"w":{"0":0.27576814770948055,"1":-0.13830448322878944,"2":-0.05617797048544129,"3":-0.24133882933518125,"4":-0.034617718713381186,"5":-0.029110808568643273,"6":-0.0455948283466799,"7":0.0195778455070039,"8":0.17282888369043325,"9":-0.055970498027604766,"10":-0.1923490051732519,"11":0.12623156392692483,"12":0.05868783330584614,"13":0.12080703753396876,"14":0.0463399932646531,"15":-0.013090848041366008,"16":-0.03239207450215156,"17":0.061629887004805775,"18":0.1555646787202498,"19":-0.07331434693943857,"20":0.14692552844237863,"21":-0.07834381648737833,"22":0.17242256676749534,"23":0.23391309990039263,"24":0.21907084176284705,"25":-0.08827643117740591,"26":0.11301737203112794,"27":-0.22175760410297432,"28":0.10014600896597682,"29":0.25278304572635346,"30":0.18243211053640646,"31":0.0044349578988580685,"32":-0.20061454616858287,"33":-0.22088908215993144,"34":0.07309576921998848,"35":-0.05637372272277765,"36":0.08289496209324974,"37":-0.06636069436288679,"38":0.09488808604630024,"39":-0.21256679762299152,"40":-0.054855502971218065,"41":0.0387008117049069,"42":0.09639289344169791,"43":-0.11247630059227015,"44":-0.004579172398107915,"45":-0.037492657984837634,"46":-0.05074166225033858,"47":0.12280208516154009,"48":-0.0873044121042723,"49":-0.20764689660196814}},{"sx":1,"sy":1,"depth":50,"w":{"0":0.11323597865082488,"1":-0.1637760891281179,"2":0.2392031533925892,"3":-0.04896080176636877,"4":-0.12609272221412063,"5":0.09068628107290369,"6":0.0016273411195894382,"7":0.1295144564356018,"8":-0.2657940306180912,"9":-0.12892528536203987,"10":-0.10513075779051746,"11":-0.2991812819433026,"12":-0.10777572146340977,"13":-0.16413530754274633,"14":0.0024929095101406196,"15":-0.005247422807041262,"16":-0.02259404522621483,"17":-0.2955193487009283,"18":0.25648277010490467,"19":0.04847412351416459,"20":0.10918605178631069,"21":0.00849926200021814,"22":-0.13327826148978758,"23":0.15530292953504082,"24":-0.25373024927526716,"25":-0.10546773056859202,"26":0.014546823570517266,"27":0.09732073967127211,"28":-0.30691500829089186,"29":-0.14347560276215154,"30":-0.09395319644552638,"31":-0.02512234232186082,"32":-0.18957559158840695,"33":-0.017701070427418617,"34":0.10077830620076754,"35":-0.009327022538471754,"36":0.10638031908996445,"37":0.08273202300653557,"38":-0.08394801422088795,"39":0.11474934035769906,"40":-0.013521652048261527,"41":0.07119519491146961,"42":-0.1758547552004048,"43":-0.08221501758811743,"44":-0.09358377689703451,"45":0.13172014224415265,"46":-0.07647570837420004,"47":-0.2573888845746951,"48":-0.036121247617638116,"49":-0.04170944396040053}},{"sx":1,"sy":1,"depth":50,"w":{"0":0.042470100116361584,"1":-0.15092593283151606,"2":0.07159027680893058,"3":0.0025086446344080764,"4":-0.2976230510028519,"5":0.31005547968807756,"6":0.12208680216950739,"7":0.1833538673556182,"8":-0.05848307703984507,"9":0.0412895085193777,"10":0.06550498246182151,"11":0.08124737767317108,"12":0.15371207741902446,"13":0.08285045377142439,"14":0.035075300446827475,"15":0.12060886046617847,"16":-0.17550015889872178,"17":0.14131769037423406,"18":-0.09414384563086964,"19":0.03214346946594627,"20":-0.1564448465803201,"21":-0.025215662700629013,"22":0.1320941508754031,"23":0.02048271575449226,"24":0.057620285661481294,"25":0.08425361791263648,"26":-0.3347812783690621,"27":0.10968908125182247,"28":-0.04719588894909509,"29":0.05197876481671567,"30":0.1775285975643887,"31":0.05176612952022499,"32":0.058321926103262284,"33":0.03906616949385524,"34":0.03590834948135143,"35":0.03648844285626385,"36":-0.12941853112120486,"37":0.026910175464963198,"38":0.009210576944799757,"39":-0.11798296917095841,"40":0.0562088173176549,"41":-0.015095426134950537,"42":-0.08132634594381587,"43":-0.149455144241079,"44":-0.0881173413832407,"45":-0.021901229677229194,"46":-0.020855043560220984,"47":-0.03246825816864118,"48":-0.029365001739665074,"49":0.19237571582385582}},{"sx":1,"sy":1,"depth":50,"w":{"0":-0.018306378830654012,"1":0.13874245000828545,"2":0.12367529687066661,"3":-0.1339250019990469,"4":-0.05927146809066327,"5":0.09181671625972444,"6":-0.26112026176228853,"7":0.06575952608471591,"8":0.23131260258841368,"9":0.193940591567522,"10":-0.073628282153467,"11":0.006147223384865083,"12":-0.15039058176847167,"13":-0.16458087536259763,"14":-0.14796818200591424,"15":0.0018340695615090485,"16":0.0591998912350544,"17":-0.0004522074284948464,"18":-0.033300407026303096,"19":-0.14725315385566837,"20":-0.010771445953423197,"21":0.0907769997667809,"22":0.017105974721772367,"23":-0.28692222617108804,"24":0.15490663887546202,"25":0.07320602694498428,"26":-0.1863977869736903,"27":-0.12000409177226713,"28":-0.10527372625873364,"29":0.12461311398242268,"30":0.15120619048045295,"31":-0.06390583556415122,"32":-0.013569512935295201,"33":0.0010439990615988672,"34":0.18969438197516106,"35":-0.006494912774215129,"36":-0.05758032848681127,"37":0.04690924526618349,"38":0.0017606080217572573,"39":-0.059416863666669935,"40":-0.17078598718562682,"41":-0.13082639174108754,"42":-0.015078972638226277,"43":0.1929281428222124,"44":-0.03546022501865063,"45":-0.23585739550608584,"46":0.03361054759656878,"47":0.11821390218059619,"48":-0.1678231364342897,"49":-0.20247448200873508}},{"sx":1,"sy":1,"depth":50,"w":{"0":-0.017311420316439494,"1":0.2095073503213325,"2":-0.010359641414766838,"3":-0.11218362996372992,"4":0.1488502748045764,"5":0.06146984608044961,"6":0.21762058082762564,"7":0.03140392083701618,"8":-0.12391674949320797,"9":-0.08652517438563706,"10":0.24089361377938,"11":-0.0028618472117722233,"12":0.1995007808249657,"13":-0.06305353634961458,"14":-0.24394403294311015,"15":0.0028664017289720236,"16":-0.09660642527721597,"17":0.12936764792147112,"18":0.035463949507944785,"19":0.2295577398555289,"20":0.12167658608925037,"21":0.22780893833119112,"22":0.08690550882872898,"23":-0.15260389210337427,"24":-0.19390785667739352,"25":0.19886815226909393,"26":-0.14389131403734207,"27":-0.06770691787877205,"28":0.20324229928118423,"29":-0.1148286104473796,"30":-0.21123325735380738,"31":-0.2181125893174192,"32":0.04477814699407256,"33":0.11592071091006846,"34":-0.11667603543455446,"35":-0.2885796116331936,"36":-0.38120308537906633,"37":0.120057819215238,"38":-0.06196058311450922,"39":-0.1619665820794349,"40":-0.006662662894450323,"41":-0.04298222553396519,"42":-0.11095628795567672,"43":-0.02332923428856802,"44":-0.21773352256699188,"45":-0.18445907972764722,"46":-0.014129983119911442,"47":0.11950631548204539,"48":-0.050827297141887925,"49":0.007435597689453691}},{"sx":1,"sy":1,"depth":50,"w":{"0":0.15952910107187096,"1":0.04299562744944705,"2":0.04963203081475009,"3":0.10056306746926577,"4":0.1924104552319963,"5":0.16621496433391625,"6":0.25288281044854166,"7":-0.0352094730200185,"8":-0.0571500435541939,"9":0.0751600933013362,"10":0.010654815412718129,"11":-0.1173826194943615,"12":-0.31759438622920233,"13":-0.023863277287376198,"14":-0.018616160700582158,"15":-0.035353977514644,"16":-0.3403777131672421,"17":-0.06402159396339066,"18":-0.1206667893936079,"19":-0.28746573963712574,"20":0.03825537690942216,"21":0.1521299936797424,"22":-0.003432742654709289,"23":0.10020834039177207,"24":-0.11192302084060655,"25":0.02920563502552964,"26":-0.0770252402908851,"27":0.05908325255100082,"28":0.010074533409480353,"29":0.020391936782859638,"30":-0.05999234985111283,"31":0.09870277971384844,"32":0.022154204891991238,"33":0.024897989872334582,"34":-0.2260952460477525,"35":-0.2687774344178917,"36":-0.2964668028704452,"37":-0.08272481830939278,"38":0.0009643506308403757,"39":-0.027362316043585008,"40":0.13537036157994461,"41":0.1561989607712144,"42":-0.035080077164291644,"43":-0.17629566375499486,"44":0.04654921214602851,"45":0.30363339722443067,"46":0.06978651647714813,"47":0.0992648863246371,"48":-0.0998291734936893,"49":-0.026538542862057035}},{"sx":1,"sy":1,"depth":50,"w":{"0":0.20221433783663376,"1":-0.1745107957136069,"2":-0.04791644232638177,"3":-0.09447573128231108,"4":-0.09490490216885912,"5":0.1452055671401409,"6":-0.07337011053160385,"7":-0.2064351738873141,"8":0.01787355161508699,"9":-0.13693877536089005,"10":-0.1276102965808585,"11":-0.005358662868324793,"12":0.005724383595331438,"13":-0.30723803245220854,"14":0.0012311277196503504,"15":-0.16323350681044954,"16":0.1236528497444975,"17":0.08136034765945128,"18":0.09701253255956013,"19":-0.22987614176779678,"20":0.11434014931432293,"21":0.019017723464403564,"22":-0.28144684882183546,"23":-0.1565569777549171,"24":-0.11334831715971654,"25":0.08302248528778383,"26":0.1300302161972263,"27":-0.022858421257733498,"28":0.0232002999020677,"29":0.12392966584185724,"30":-0.09233857665841629,"31":-0.13077048344689346,"32":-0.357275163536307,"33":-0.014596489176491732,"34":0.21782845212264082,"35":0.11146470122864277,"36":0.15962415461191204,"37":-0.0005479148754685844,"38":0.24006601096991875,"39":-0.03562391435361485,"40":-0.2678502351147684,"41":0.14756797984282138,"42":-0.07070343656064952,"43":-0.14647368419886184,"44":-0.05743687413912028,"45":-0.21189025258637856,"46":0.011002051185945888,"47":0.07073982613880017,"48":0.19860274279809867,"49":0.18681549178464446}},{"sx":1,"sy":1,"depth":50,"w":{"0":-0.1979481781542942,"1":0.19150958878893293,"2":0.01073833267811822,"3":-0.12133103523394455,"4":0.2157943577779058,"5":0.01946535029565528,"6":-0.0760631832824033,"7":-0.06498763257753004,"8":0.18364899078751795,"9":0.08695293670631811,"10":-0.18214821897733513,"11":-0.4908268371684129,"12":0.006824174408792079,"13":0.16902897114174692,"14":-0.14556563801290207,"15":-0.1978300555390002,"16":0.21806506793579275,"17":0.14049744927377528,"18":0.05273270270968347,"19":-0.23359279148735035,"20":0.07784202655905376,"21":0.029686036977115884,"22":-0.2884450751314985,"23":-0.2805225137834911,"24":0.013475279556573405,"25":-0.07061769038397508,"26":-0.13994180958243976,"27":-0.07022346319128805,"28":0.1159301620972775,"29":-0.10917687941298052,"30":0.07343390904226815,"31":0.009138172153205932,"32":-0.09738237180054132,"33":0.2598711700069372,"34":0.06647158698060299,"35":-0.10276195818732194,"36":-0.08605111391616753,"37":0.315567731069426,"38":0.021138586062478596,"39":0.09903981149782756,"40":-0.12361412560639025,"41":0.007542194133253806,"42":0.18887251151422807,"43":0.06941090753943993,"44":0.1846994531266829,"45":0.050796409722527046,"46":-0.21827003235991327,"47":0.028520559598372273,"48":-0.005160864782886276,"49":-0.18766851555325226}},{"sx":1,"sy":1,"depth":50,"w":{"0":0.2914866418341427,"1":-0.22422316171955733,"2":0.07344396223062041,"3":0.059349101125114545,"4":0.04669400172926191,"5":-0.06212500040771891,"6":0.0595742640718167,"7":0.08640740647040772,"8":-0.27864397139328717,"9":-0.021908897362113437,"10":0.10540964724091172,"11":0.0933299719589406,"12":0.026929631245397607,"13":0.18285118333377975,"14":0.13540360433144757,"15":0.1431305823038902,"16":0.12037318151655833,"17":-0.13136547704260507,"18":0.14967796277159798,"19":0.008590082638636315,"20":-0.1312512834893948,"21":0.1251925267432174,"22":-0.04820005961306984,"23":0.15502388546084367,"24":-0.21641641247089508,"25":-0.3896150073535211,"26":-0.11341080751056276,"27":-0.271348273178272,"28":-0.014193853245812618,"29":-0.1599951796098833,"30":-0.10172145471927112,"31":0.05429264989989961,"32":0.10083134909927927,"33":0.032474765440753124,"34":-0.1061988201144288,"35":-0.05708062428812973,"36":-0.07135254817039141,"37":0.010595793944887107,"38":0.17822479273203817,"39":-0.08603764921410151,"40":0.05694228169390903,"41":0.05365061580346801,"42":-0.08928020076759509,"43":0.08780815783008146,"44":-0.08298474849033995,"45":0.14339213637288092,"46":0.08259714589744022,"47":0.08752438848585306,"48":-0.2599744589436608,"49":0.10018896685689713}},{"sx":1,"sy":1,"depth":50,"w":{"0":-0.04030577465969866,"1":0.09222329097172074,"2":0.004789853188701174,"3":0.06623930477006593,"4":0.00905425299610263,"5":-0.3864761649474342,"6":-0.14443230546073232,"7":-0.19424955699543098,"8":0.07969988460329093,"9":-0.23013547083425412,"10":-0.17735550661103935,"11":0.23295270605267623,"12":0.406699747232559,"13":-0.07861306330650622,"14":-0.0214093616472155,"15":-0.16541615812983249,"16":0.14264104826914764,"17":-0.19849994884068664,"18":-0.031197612850404233,"19":-0.4873393268867403,"20":0.03315024378285879,"21":-0.20565348975290165,"22":0.11575343487716491,"23":-0.15713266074751572,"24":-0.014342080503182964,"25":0.15434355645447725,"26":0.0053861180232811934,"27":-0.07738000670385155,"28":-0.2183965992320462,"29":-0.28190450310840104,"30":-0.14344228227724032,"31":-0.18219218071863383,"32":-0.00308845225106365,"33":0.08316201429868371,"34":0.3257546140677573,"35":0.2772328022810667,"36":0.20035980426503575,"37":-0.10434939906770196,"38":0.24430327356614423,"39":0.13495692026173256,"40":0.01238696769075271,"41":0.18715324447180343,"42":-0.08970735197975818,"43":0.00007269158156149834,"44":0.010440352467614567,"45":0.33322638832944856,"46":-0.0030898244989596806,"47":-0.11203777088700866,"48":-0.08864479390562947,"49":0.15203132314774886}},{"sx":1,"sy":1,"depth":50,"w":{"0":-0.06770772904156967,"1":0.10853934464023982,"2":0.11013112463378233,"3":-0.09306775037736197,"4":-0.016895981021829137,"5":-0.1975640028267949,"6":-0.1486104514135445,"7":-0.11270438860557057,"8":-0.10881733501082003,"9":-0.09711080508636138,"10":-0.07098533882031105,"11":0.09317201419051194,"12":0.05282741858105094,"13":-0.06355859180903942,"14":0.024914880307731282,"15":-0.2462115568932233,"16":0.016117426699852482,"17":-0.06386430316907397,"18":0.09769291581360962,"19":-0.2697507799785602,"20":-0.021166413163562735,"21":-0.2414149455200275,"22":0.14541483382111983,"23":0.14144223230940983,"24":-0.028888798562017884,"25":0.08736701617888536,"26":0.05598841069201701,"27":0.04101604173421195,"28":-0.1516835156761482,"29":0.0916858617452573,"30":0.1010435351340999,"31":0.01529761699965451,"32":-0.12105999894871397,"33":-0.14005820465174976,"34":0.16730019880789088,"35":-0.0993947704188829,"36":-0.09248832698317078,"37":-0.11316638605990768,"38":0.04626372132510046,"39":0.09223097389918959,"40":0.09713903843851393,"41":0.15763293779089163,"42":0.12384027373674647,"43":-0.056726182653753385,"44":0.2244829532356382,"45":0.06302583089725126,"46":-0.00022521130206955308,"47":-0.26704272159405296,"48":0.18006806034957157,"49":-0.08230245661081186}},{"sx":1,"sy":1,"depth":50,"w":{"0":0.1037145029293232,"1":0.11878400536929301,"2":-0.14139416821401554,"3":-0.11690709052573162,"4":0.1810347491693568,"5":0.22024839077337463,"6":0.08494746647250373,"7":-0.059464138318563835,"8":-0.04332919780716946,"9":-0.05782481037275486,"10":0.006968766477736862,"11":0.10551408284002742,"12":0.300473898781067,"13":-0.029901102838739382,"14":-0.23588053215239588,"15":0.3016243033188392,"16":0.13786068824887282,"17":0.13717586801460951,"18":0.02548126426225524,"19":0.0659971633010852,"20":-0.01670514023427179,"21":-0.16048039827807606,"22":0.15668810928313184,"23":-0.09295741977119508,"24":-0.013945956469455295,"25":0.1137520989593159,"26":-0.044258252128612625,"27":-0.016108537271655846,"28":-0.11735175165361585,"29":0.0434355186782932,"30":0.051725998894958915,"31":-0.041851099856302275,"32":0.11925513555174455,"33":0.14672227941710125,"34":-0.07649879905326983,"35":-0.06739601778331639,"36":-0.04077887531132751,"37":0.184311453735503,"38":0.17301490017187973,"39":-0.44629930681114494,"40":0.12817455317271476,"41":-0.061798181001741434,"42":-0.10113834374053128,"43":0.18249836789622123,"44":-0.1539501902669999,"45":0.10509036924226306,"46":0.3807666363122537,"47":-0.015918507492764983,"48":0.06658546955308249,"49":0.10331581850812317}},{"sx":1,"sy":1,"depth":50,"w":{"0":-0.12590368338190275,"1":0.05024313371528144,"2":-0.13390571981888838,"3":-0.1266149091036428,"4":0.1209931635534428,"5":-0.09074810442122973,"6":0.0692170069202292,"7":0.06378137677387181,"8":-0.1118361537233882,"9":0.04970887463236555,"10":-0.03490625974894551,"11":0.10135607606440075,"12":0.05265219091968806,"13":0.0705674167482449,"14":0.06115141048118224,"15":-0.12543808059344128,"16":0.007578678503038861,"17":-0.1695636594601169,"18":0.021205958185545482,"19":0.2138763305009965,"20":0.08417149318317296,"21":-0.08598672035958771,"22":-0.17903346450024504,"23":-0.1385232998081425,"24":-0.2170852007772943,"25":-0.07446597924161229,"26":0.043871363220841945,"27":-0.0655156861345158,"28":0.0621618777921788,"29":-0.21781326668021508,"30":-0.014231595955831705,"31":-0.14272701610103883,"32":0.15149165698902622,"33":0.13213187883585156,"34":-0.025280736412822098,"35":-0.10223705556195678,"36":-0.05952125609135737,"37":0.08388189920283405,"38":-0.1791147610781528,"39":-0.07479613461668996,"40":0.3149185639366811,"41":0.0872500465203875,"42":-0.11037167760961314,"43":0.18811209805103737,"44":-0.37718365724698033,"45":0.08930620242294975,"46":0.06757106144885196,"47":-0.09890590656081058,"48":-0.16388309145849372,"49":0.18193276920419005}},{"sx":1,"sy":1,"depth":50,"w":{"0":-0.09847092325018182,"1":0.0014086353703127966,"2":0.05546181503785182,"3":-0.17013642044420643,"4":-0.11567834162682605,"5":0.0388643160377349,"6":0.1309096874880032,"7":-0.21270684974864174,"8":-0.26466287459324545,"9":-0.06989361521613828,"10":-0.08995513049018934,"11":0.15131287428761273,"12":-0.0357736619102502,"13":-0.010100577817794632,"14":-0.15908224463795098,"15":-0.17487120305619328,"16":0.1254790404772781,"17":0.132447283330668,"18":0.1130525152917389,"19":-0.037963731789985744,"20":0.14082677990381107,"21":0.21243308661462434,"22":0.14142818991313305,"23":0.02900193333156656,"24":0.0282876531562512,"25":0.12031300179594305,"26":0.10402291308936609,"27":0.01946358889242853,"28":-0.020332639139445746,"29":-0.23587403467097373,"30":-0.01494690132987744,"31":0.07928371341635718,"32":-0.07779010316870404,"33":0.06852704600501637,"34":0.03289791314882404,"35":-0.01375168469244944,"36":0.08782043615333775,"37":-0.33422614219185814,"38":-0.025092425874605122,"39":0.08614532473847171,"40":-0.046993814869611045,"41":-0.0567924964653072,"42":-0.07856397023328217,"43":0.1120093759513998,"44":-0.291352029106781,"45":-0.08052518135746876,"46":-0.027293085695946382,"47":-0.004165228287131867,"48":0.12425932751226303,"49":0.11153630362486698}},{"sx":1,"sy":1,"depth":50,"w":{"0":0.12170900735013584,"1":0.12751942673802588,"2":-0.12890194822556564,"3":0.21716235786571791,"4":0.10607178420422456,"5":0.33611120607849737,"6":-0.1381460757238058,"7":-0.09710017019736891,"8":0.12397056145812611,"9":-0.1580343352040059,"10":-0.07849495232184205,"11":0.17125630103949188,"12":-0.03685729043242571,"13":0.14539592742300703,"14":0.01017349190878627,"15":-0.01117734127368845,"16":0.23527175996368002,"17":-0.015336845371818567,"18":-0.22287631470702673,"19":-0.148386962517978,"20":0.045412318599523535,"21":-0.3403593478809886,"22":0.09828364619334261,"23":0.06888281874474342,"24":0.1124260796134474,"25":-0.09651365889878906,"26":0.06461722791560147,"27":-0.06327328924405914,"28":0.05431519556965576,"29":0.24547662303183654,"30":0.18211414712298907,"31":-0.027075684413343543,"32":-0.05731875835176241,"33":-0.09376890057343278,"34":-0.048356294497468824,"35":-0.3510011684483642,"36":0.18126242499169018,"37":0.30034211198962846,"38":-0.2529497615748571,"39":-0.008339395193621481,"40":0.03089253302071162,"41":-0.11432388221182814,"42":0.2706002428396264,"43":-0.20316968481624542,"44":0.021431462267800072,"45":0.012010875965896442,"46":0.0856859603364722,"47":0.02649634775806515,"48":0.1071042738031477,"49":-0.07676044808471892}},{"sx":1,"sy":1,"depth":50,"w":{"0":0.12807248380213773,"1":0.11692934734034717,"2":-0.02214776821301384,"3":-0.30694593224477007,"4":-0.14409246756525157,"5":-0.11521340474270125,"6":0.125866052750696,"7":0.229243846747297,"8":0.012444243740647407,"9":-0.10489568299233253,"10":-0.19074353730776888,"11":-0.09343246141026695,"12":0.11295727195952003,"13":0.38285739280522774,"14":0.047901558914428426,"15":-0.22578154586795185,"16":0.04125966949498548,"17":-0.004321390643869596,"18":0.015911843047109086,"19":0.00428307706592426,"20":0.028419811403235913,"21":0.1859999639058854,"22":-0.06900821349646148,"23":0.02780277805395562,"24":-0.2640989643720478,"25":-0.18378638386013893,"26":0.07217448493694258,"27":-0.11008476615280718,"28":-0.2935935222570473,"29":0.007353420113422314,"30":0.15357128547910015,"31":-0.06002599027977798,"32":0.12088333520628293,"33":0.1392929628872125,"34":0.0034665432430692105,"35":-0.17774794995906265,"36":0.014822669229913172,"37":0.05646562802618051,"38":-0.14144596538628282,"39":0.08899530746628187,"40":-0.24220616409343032,"41":-0.14572548721511636,"42":0.20430171008372527,"43":0.07273622718573547,"44":-0.034081749544270706,"45":0.11230649941829952,"46":0.06221739925651353,"47":-0.2032061167810363,"48":-0.09725876267531765,"49":0.0023356563761051403}},{"sx":1,"sy":1,"depth":50,"w":{"0":-0.007596959434849062,"1":-0.09094229388732808,"2":-0.175421848387221,"3":0.05664562910242095,"4":-0.0708860938671373,"5":-0.06798442253690098,"6":-0.0641587944683639,"7":0.19747137741761797,"8":0.03172904905482987,"9":-0.08448536372777214,"10":-0.08398926414211308,"11":-0.04196564000269304,"12":-0.04816900590422204,"13":0.025119728527741185,"14":-0.08820211817346234,"15":0.04075118293320168,"16":-0.01779108602196925,"17":0.03020793563407278,"18":-0.22153422547044554,"19":0.06888638291701031,"20":-0.16709249269196416,"21":-0.028449100615143927,"22":-0.13256662931858337,"23":-0.09821479452995005,"24":-0.07579971396804738,"25":-0.07644736907666341,"26":-0.012506427865726675,"27":0.1813223217235797,"28":0.07091994290577018,"29":-0.0818946785068896,"30":-0.035603176769783924,"31":-0.1584365250232034,"32":0.04383052881158145,"33":-0.08583150262760211,"34":0.006288547428229395,"35":0.10695710536016596,"36":0.04874054952692873,"37":-0.04698139609944512,"38":0.0872539987528318,"39":0.03958674856353694,"40":-0.03208160090213993,"41":0.05856392762111693,"42":-0.11840342678143091,"43":-0.019455885515130156,"44":-0.018325631398782224,"45":0.20277051385030243,"46":-0.08058528564242975,"47":-0.1558914787356242,"48":-0.0182760883734867,"49":-0.026430834481916105}},{"sx":1,"sy":1,"depth":50,"w":{"0":0.16279802719345632,"1":-0.056509760592799725,"2":-0.08694907639356962,"3":-0.021454557648244763,"4":-0.02641858489712629,"5":-0.08031126110934073,"6":-0.06825742538521068,"7":-0.08484707708126768,"8":0.012652584731551925,"9":-0.159756676355312,"10":0.2547920550505338,"11":0.05300518367379871,"12":0.2872944797492289,"13":-0.026353232933369622,"14":-0.1813872247947305,"15":-0.08681939749421437,"16":0.007273689853448293,"17":0.00610290530369326,"18":-0.06445367313691205,"19":0.27082695789236905,"20":-0.1676864741709881,"21":0.2308918317350489,"22":-0.13467445834889036,"23":-0.12614222505255518,"24":-0.15227457348823967,"25":0.005936200510080795,"26":-0.03764239353626726,"27":0.2828845055162518,"28":-0.03076504588477346,"29":0.07576454110966803,"30":-0.16818772337241442,"31":0.0919755894804869,"32":-0.03509757119212518,"33":-0.09913163098710881,"34":0.030970607180530355,"35":-0.10163295977704548,"36":-0.11129715537025714,"37":0.06080919082451617,"38":0.03366989551144036,"39":0.055831362996924656,"40":0.08516612645308677,"41":0.13639610773663552,"42":0.16002299763219677,"43":-0.05391555003724065,"44":0.07811348180876852,"45":0.23626924507342142,"46":-0.21173922815930254,"47":-0.20278876576227378,"48":-0.14534370032222907,"49":-0.03256419343900404}}],"biases":{"sx":1,"sy":1,"depth":50,"w":{"0":0.05047988222367538,"1":-0.010818705465089663,"2":-0.17122577856427443,"3":-0.07155002755961992,"4":-0.05569500245620018,"5":0.015120659945289673,"6":0.1260029734497139,"7":-0.014561075197350785,"8":-0.06465869010215007,"9":0.07138991621879653,"10":0.0007828374025694197,"11":0.02878851459416645,"12":-0.01756279217904344,"13":0.008850040661339596,"14":-0.0033194615984646733,"15":0.07997799442929444,"16":0.05905589182929735,"17":-0.06815277971125669,"18":0.047528111680151544,"19":-0.03909390926347392,"20":-0.01271004638061372,"21":0.041914399430050236,"22":-0.024150832597488257,"23":0.009218076582578049,"24":-0.05724155950223468,"25":0.037675039300886656,"26":-0.07708232245266386,"27":0.03589762505924453,"28":-0.006897833571897785,"29":0.06630976162615383,"30":-0.009777378954645649,"31":0.008518874890403953,"32":0.052512846575567235,"33":-0.12352513205643051,"34":0.05090064885611562,"35":0.04103774439097947,"36":0.07154288309411655,"37":-0.07446085469714227,"38":-0.0019888788497839606,"39":0.008622271826064579,"40":-0.03663308949210037,"41":-0.022231663716038755,"42":0.011716657683893078,"43":0.11303786743412025,"44":-0.04383717035772932,"45":0.021656531679511967,"46":0.005985022124652257,"47":0.03205336963667183,"48":0.026412228000983,"49":-0.009420915891251885}}},{"out_depth":50,"out_sx":1,"out_sy":1,"layer_type":"tanh"},{"out_depth":784,"out_sx":1,"out_sy":1,"layer_type":"fc","num_inputs":50,"l1_decay_mul":0,"l2_decay_mul":1,"filters":[{"sx":1,"sy":1,"depth":50,"w":{"0":0.031150324250486455,"1":0.043856777198750065,"2":0.009698494712248497,"3":-0.17469560249819463,"4":0.041191670464632756,"5":-0.0487229348752749,"6":0.07626770178335193,"7":-0.22156185173530513,"8":0.09942324850830006,"9":0.23063744614594733,"10":-0.2161674825330516,"11":0.11448226597415812,"12":0.21777150089760974,"13":0.028315285332465516,"14":0.07005647684080994,"15":0.044482905376590366,"16":0.12222939269663101,"17":0.30275155570438184,"18":0.0789226089853566,"19":-0.2424409053346796,"20":-0.017141985231420822,"21":0.3555449724565578,"22":0.1907591396224549,"23":-0.03792156284809508,"24":0.12613930069904788,"25":0.030542670398140903,"26":-0.1450991598018142,"27":0.033913076093905536,"28":-0.2569740074678325,"29":-0.030327622850814747,"30":0.18552199944015127,"31":0.20176507502274635,"32":0.07817730234555297,"33":0.20148044921206612,"34":-0.015360773374599465,"35":0.09987644314757999,"36":-0.1234525790810595,"37":0.044931734766714984,"38":0.04513265157813373,"39":-0.007398790979579568,"40":0.12072904267957608,"41":0.17460881579035067,"42":0.23780579563375423,"43":-0.1436754799017733,"44":0.11919323120177762,"45":-0.06536081184179869,"46":0.01839976711045744,"47":0.01856294701775849,"48":-0.16272024542197236,"49":-0.01373361346485564}},{"sx":1,"sy":1,"depth":50,"w":{"0":-0.10585238537055948,"1":-0.07121650787823006,"2":-0.08831577842427327,"3":0.1283411255086039,"4":-0.1712213876542917,"5":-0.11464503705586605,"6":-0.04259604450602205,"7":0.040015963127316145,"8":-0.03498324087104164,"9":-0.24698926982906108,"10":-0.08983315072138195,"11":0.12094660448000752,"12":-0.010253483125134666,"13":-0.4112088415387962,"14":-0.15725395350991944,"15":-0.04318054407656524,"16":-0.0029223491212529836,"17":0.06807406105028704,"18":0.11649828404541868,"19":-0.16042637682280425,"20":-0.005924222892866903,"21":0.34006154549832035,"22":-0.2819778455467354,"23":0.06591001019993098,"24":0.1798828477471022,"25":-0.16850863242395575,"26":-0.08297953058406926,"27":0.2597063211863754,"28":0.05603828475486504,"29":-0.09140915643953254,"30":0.16819983315099782,"31":-0.1530082081237907,"32":-0.06989921231321528,"33":-0.17566278585607986,"34":0.09376694747827159,"35":-0.031578467053211295,"36":-0.0553505449731314,"37":-0.20167353090458698,"38":-0.1708284622523196,"39":0.012292691748051273,"40":0.04675525660015301,"41":0.17627487709286857,"42":0.05537874237539875,"43":-0.04911441262945354,"44":-0.10867429810852207,"45":0.012974537041125944,"46":-0.03188751126034566,"47":-0.15438783156653943,"48":-0.13555499465575646,"49":0.1428704573893367}},{"sx":1,"sy":1,"depth":50,"w":{"0":0.029457081773169146,"1":-0.21645912519641325,"2":-0.01276152252245731,"3":-0.2685416125824085,"4":-0.0949087871746968,"5":-0.057771431884285684,"6":-0.2323590945682276,"7":-0.01780500475917208,"8":-0.01779354441807441,"9":0.1344957184211558,"10":0.0013011196232167257,"11":-0.044246775591573584,"12":0.07828731662642022,"13":-0.07495513154307464,"14":-0.0871032980655254,"15":0.05257633233405077,"16":0.027689346035070585,"17":0.07023503121756186,"18":-0.01305060448135484,"19":-0.08513037245517528,"20":0.13504694486477115,"21":0.03675993319985872,"22":0.10366197763537499,"23":-0.011235522655959455,"24":0.03444016501929209,"25":-0.02308951735523229,"26":-0.0516321364401695,"27":-0.04157570274854766,"28":0.00018145914432574615,"29":0.15140848531800533,"30":0.14316061291196747,"31":-0.05045816569628305,"32":-0.09375731572691917,"33":-0.10916083381265604,"34":-0.3530701604010917,"35":-0.05202421793048924,"36":0.064965710032117,"37":0.08447545893539131,"38":0.07891674819011245,"39":0.009080355760582947,"40":0.01605171422939382,"41":0.12728445071725059,"42":-0.02888153361281253,"43":-0.11056481145426222,"44":-0.1128260523558087,"45":0.20410385956288826,"46":0.0770261551110423,"47":-0.13801958799875905,"48":-0.1347884150030294,"49":0.10064763161161502}},{"sx":1,"sy":1,"depth":50,"w":{"0":0.015372339933478875,"1":-0.18950774505548743,"2":0.195727134359834,"3":0.024723854777871,"4":-0.14303762140375148,"5":0.05863681599457233,"6":0.13996046072282634,"7":-0.04396811619015201,"8":0.009822874677976708,"9":0.040995219688575314,"10":0.06768769064555129,"11":-0.02581152437797771,"12":0.19812632429887753,"13":0.026740551819414243,"14":-0.07986776369751747,"15":-0.015272109242363446,"16":0.11686352748031324,"17":-0.08858595307155484,"18":0.06799189864047606,"19":0.011333461976249376,"20":0.22752479336686832,"21":-0.00916940847757345,"22":0.08725901644015523,"23":-0.05677485363392195,"24":0.04579392327804989,"25":-0.12722818874101038,"26":-0.005035596804978886,"27":-0.16655218002136413,"28":-0.0756922739500922,"29":0.023130248181502944,"30":0.10516918716020102,"31":-0.11676926010513355,"32":0.24341118500337322,"33":0.00102830497193961,"34":-0.1262498746303433,"35":0.0745240058743044,"36":0.22162227981436727,"37":0.16600801185473543,"38":-0.0020465227999402476,"39":0.02533965730570594,"40":-0.041956280032448626,"41":-0.1584286919410765,"42":-0.12334372744008427,"43":-0.07583444445074766,"44":-0.15884710405121616,"45":0.07023711144617105,"46":-0.10609917626689344,"47":-0.22378220862307147,"48":-0.163861918716785,"49":-0.06813394624973668}},{"sx":1,"sy":1,"depth":50,"w":{"0":0.06390218252921126,"1":-0.01115117555692692,"2":0.08487839535510866,"3":-0.2654662327913612,"4":-0.018034126715776234,"5":0.17369744564333606,"6":0.07979164522497652,"7":-0.029827427712127333,"8":-0.018120053381447947,"9":-0.1671436164861475,"10":-0.0009253187730976982,"11":-0.09563522939361142,"12":0.1984699714403219,"13":-0.18199654239587704,"14":-0.023348258760435996,"15":0.02455680143599038,"16":0.013524498130202477,"17":0.01142077171526002,"18":0.1034062437829552,"19":0.04730972327824067,"20":0.07971138333893826,"21":0.17766985925968407,"22":-0.101625957730178,"23":0.018005978701306324,"24":0.10017681991070038,"25":-0.1910851229990436,"26":-0.153183263431822,"27":-0.01870551386151792,"28":0.0408499527411392,"29":-0.2463081876586447,"30":0.09531618787597981,"31":0.04620446506381547,"32":-0.15946400869759458,"33":-0.06614427918132355,"34":-0.09072043567275065,"35":-0.01239759025384165,"36":-0.007828758232804859,"37":0.008416811105561108,"38":0.019749840537417778,"39":-0.015666090969799373,"40":-0.026168134160709674,"41":0.01810402904701939,"42":0.1316790642963736,"43":-0.07452972939210933,"44":0.05158110153311999,"45":0.036981594984727195,"46":0.15180128108975174,"47":-0.04787373185437832,"48":-0.12258731458473957,"49":0.09956304978037527}},{"sx":1,"sy":1,"depth":50,"w":{"0":-0.04316886204911199,"1":0.025482723590191107,"2":0.14210942251365988,"3":-0.03950242959287052,"4":0.1157761761750029,"5":-0.33271925469197744,"6":-0.10519419518040764,"7":0.10677362966800082,"8":0.2157674567971551,"9":0.2164044992906449,"10":0.053103695583789516,"11":0.026537877563296203,"12":-0.019583500406053986,"13":-0.17575409302248116,"14":0.13960530884164948,"15":0.008225128368519265,"16":-0.03449491119343853,"17":0.019655913900657587,"18":-0.124595652553261,"19":-0.17715844953061546,"20":-0.04198081134799508,"21":0.001276429434706126,"22":0.17963634363947723,"23":0.004363315171154922,"24":0.053069105652668994,"25":-0.09567120847415919,"26":-0.1078390333881304,"27":-0.09251464568773604,"28":0.23582688466605273,"29":-0.07329488997607599,"30":0.2117964258149375,"31":-0.25071450753966595,"32":0.006714321566270119,"33":-0.1422489867639797,"34":-0.07308194365870352,"35":-0.04531952309575585,"36":-0.10824839092590882,"37":-0.11013835915865151,"38":0.13258141120808808,"39":0.053927409364033736,"40":-0.13223412450383387,"41":-0.1944880775554358,"42":-0.013713955861308863,"43":0.045728854051405934,"44":0.028962019091530983,"45":0.10598710505542258,"46":0.09643799288169501,"47":-0.019940530950120966,"48":0.10909500539596083,"49":0.20272001887901403}},{"sx":1,"sy":1,"depth":50,"w":{"0":-0.04200493491666986,"1":0.043320472743385664,"2":0.0034623894375479013,"3":0.11562564162493982,"4":0.17783842121889018,"5":0.01571493662802311,"6":0.16798832670106686,"7":0.09410768582606487,"8":-0.041878466026822846,"9":0.02349353175867126,"10":-0.027150959660065324,"11":-0.01583856871293898,"12":-0.11179766394959217,"13":-0.021003067308167953,"14":-0.005155222146226655,"15":-0.07327503660781001,"16":0.08298844811911818,"17":0.20717465440327323,"18":0.033121768802731856,"19":0.042245566060921474,"20":0.004833540458170333,"21":-0.015135366939415772,"22":0.3145165084858013,"23":0.12936001390558752,"24":0.015138018990384848,"25":0.09114224497141624,"26":-0.02475839771418709,"27":0.0938902407330436,"28":-0.08893283143791818,"29":-0.07121976380920784,"30":0.09170515642220747,"31":-0.3515095960372604,"32":-0.06538440899883625,"33":-0.08402633254143763,"34":0.21083864681380238,"35":-0.013428382894147632,"36":0.005075891077951563,"37":-0.2426440913427363,"38":-0.1718631734023703,"39":0.004528294053172373,"40":-0.22772878743068492,"41":-0.137576530484942,"42":0.06429905954575525,"43":0.057554141813507854,"44":0.004720412831998597,"45":0.03359780901921772,"46":0.08964312823087557,"47":0.002790217283129579,"48":-0.1123404079902447,"49":-0.06898982222423204}},{"sx":1,"sy":1,"depth":50,"w":{"0":-0.044887708964762234,"1":-0.09482574528918004,"2":-0.13215121748512734,"3":0.06423792151983976,"4":-0.06198419052397115,"5":0.17140583751879457,"6":-0.11960513567747305,"7":0.036577687211298,"8":0.06963514671639465,"9":0.1698537056905021,"10":-0.201920704385297,"11":0.08301859522143926,"12":-0.20386706312933825,"13":-0.1002741775501553,"14":0.06392204349825303,"15":0.03669302642822109,"16":0.2499500696868201,"17":0.02604063717597734,"18":0.08307465767013958,"19":0.1518946241671357,"20":-0.09039489583970789,"21":-0.13069493256785464,"22":0.16728862084149243,"23":-0.1835071833360173,"24":-0.05769513172312892,"25":-0.21342655292567664,"26":0.15822132439713543,"27":-0.03403088811199177,"28":-0.04789686100203642,"29":0.12447344712012424,"30":0.1467278847578573,"31":-0.04496460246602529,"32":-0.03457671559113769,"33":-0.23662103278558472,"34":0.2127213883306792,"35":-0.08044184139379407,"36":-0.016538324657819414,"37":0.02805532867956404,"38":-0.20992574713566475,"39":0.0775976256761206,"40":0.03080484322525573,"41":0.04699023288612801,"42":0.11722661617220075,"43":-0.1545195579240857,"44":0.15855169430772273,"45":-0.155213897876523,"46":-0.11218022684626897,"47":-0.06357791185821693,"48":-0.13563565904542058,"49":-0.37860355102783105}},{"sx":1,"sy":1,"depth":50,"w":{"0":0.019684574181146625,"1":0.03892826343200442,"2":-0.07432387440967862,"3":-0.12588780052788084,"4":-0.19341268620738325,"5":-0.200550397635276,"6":-0.017210304330693375,"7":0.1527948401358973,"8":-0.15498472152166362,"9":0.12523803075427478,"10":0.0466725266007176,"11":-0.049483697219849125,"12":0.014390503675690097,"13":0.12577348323043247,"14":0.17679266682847877,"15":0.08062269082145397,"16":0.036463333990520604,"17":-0.03881813455411032,"18":0.09162450325572338,"19":0.09584160647720137,"20":0.04931251209737447,"21":0.06010666347133042,"22":0.1369770282727844,"23":-0.07268420641310466,"24":0.09328466042595426,"25":-0.05071999770912787,"26":-0.010506621054402164,"27":-0.04168045308773403,"28":0.00809855315228905,"29":-0.07596855065502904,"30":0.117834159147966,"31":-0.0035765518465693926,"32":0.02595774410544767,"33":0.19726203571651246,"34":-0.14539900142021456,"35":-0.07473790540553757,"36":0.19400312975438386,"37":0.13077134369181614,"38":0.1306149201230649,"39":-0.08872852500135392,"40":0.06879532880118236,"41":0.05600394319738448,"42":-0.028075893771793065,"43":-0.011553626211345184,"44":0.015341022012224122,"45":0.04911011190126147,"46":0.18932545385356123,"47":-0.09451428562741102,"48":0.09505824204884358,"49":0.022501222741870545}},{"sx":1,"sy":1,"depth":50,"w":{"0":0.24019784819139645,"1":0.03590973292921668,"2":0.008928249979654504,"3":0.0076673889472963115,"4":0.09463217905721634,"5":-0.09381034462341185,"6":0.037658897723297766,"7":-0.2171377739369542,"8":0.14216439247055987,"9":0.16360472901319909,"10":-0.07660017408046339,"11":0.36324778309903333,"12":-0.14262114227335332,"13":0.10190886922757873,"14":-0.1038657794957298,"15":0.04496694451967792,"16":-0.11620793126950446,"17":0.021466948182778035,"18":0.1249455705511439,"19":0.05358085765462466,"20":0.017493909884000777,"21":0.07501368963241578,"22":-0.16386792222245158,"23":0.11465327159011579,"24":-0.1194508322934721,"25":-0.15805963458053243,"26":-0.08874741281679698,"27":0.05994296143457755,"28":0.16840760063173504,"29":-0.03171191501026147,"30":-0.06859394664859404,"31":-0.03883271907857338,"32":0.04451705268826963,"33":-0.1968429065547029,"34":-0.1468876278762635,"35":0.06850866710332966,"36":-0.020009495440752187,"37":0.2364240531844797,"38":0.016660560633895274,"39":0.15459054519243567,"40":0.2279575842644673,"41":-0.06977101472050273,"42":0.024467007306584666,"43":-0.023250873545680284,"44":0.14270479610315873,"45":0.16873764771585154,"46":-0.07846570055967983,"47":0.18766912204263866,"48":0.10872400487813383,"49":-0.3644525570343559}},{"sx":1,"sy":1,"depth":50,"w":{"0":-0.15487010463816772,"1":-0.12403376841568095,"2":-0.16528170208293286,"3":-0.09137535077607428,"4":-0.13184328603238504,"5":0.0820446439116108,"6":-0.14505486600864165,"7":0.03000241398972537,"8":0.09028102009444643,"9":0.07763895047102712,"10":-0.1899160703337307,"11":0.11165289072718201,"12":0.0752004867227224,"13":0.012713881732735452,"14":-0.07661037155258049,"15":-0.14556312822823952,"16":-0.2340111792380817,"17":0.07809948063438958,"18":0.10700283799209481,"19":-0.17687910643676122,"20":0.05857289825527751,"21":0.10877771691498331,"22":-0.03390098056550181,"23":-0.19997540485686657,"24":-0.006193920920651663,"25":0.056770853391797105,"26":0.004678725459739167,"27":0.13816184113469354,"28":0.033312638948623456,"29":-0.28901730650916874,"30":0.033146434804290165,"31":-0.18156291039221012,"32":0.26840784157183184,"33":0.013244859700174793,"34":-0.07642190966722734,"35":0.09701282485017658,"36":-0.07402079416795956,"37":0.03832475081329991,"38":-0.046723242849820684,"39":-0.11678242191981748,"40":0.056712508666677715,"41":-0.010121936596683447,"42":-0.12094667146220141,"43":0.0702840004895828,"44":-0.18395162711435392,"45":0.09655453302137362,"46":0.19975071438460582,"47":-0.2907564523819144,"48":-0.179692777765748,"49":0.044565479256597776}},{"sx":1,"sy":1,"depth":50,"w":{"0":-0.1292317695608972,"1":0.10389911634398953,"2":-0.0392439697149365,"3":-0.05781318897850808,"4":0.03271727466990478,"5":0.0517638093273015,"6":-0.1531265860839263,"7":-0.22489221905093923,"8":-0.07303918149779723,"9":0.010595225903006052,"10":-0.37756316129350564,"11":-0.06383093786993782,"12":0.12456133509039445,"13":-0.037822133678260046,"14":-0.042362980209887525,"15":-0.0038089099454049692,"16":-0.13368264323283305,"17":0.05682323875464043,"18":-0.03241025012195006,"19":-0.2481438336490136,"20":0.09309879922557432,"21":-0.0878090313839827,"22":-0.2195542445413319,"23":0.1926586572262638,"24":-0.06991924517372151,"25":0.17447683092906682,"26":0.042943818465811454,"27":-0.007539529981825275,"28":-0.06970826232325054,"29":-0.1373414541336296,"30":-0.05464061308975507,"31":0.21999861666020507,"32":-0.18295889557333414,"33":-0.0862802053487051,"34":-0.12469460110899194,"35":-0.024075182908363704,"36":-0.24430777813193993,"37":0.0430795815095105,"38":0.05005274864451879,"39":-0.17141078470572726,"40":-0.0014951079922778318,"41":-0.01572989613656145,"42":0.30454482292006585,"43":-0.07364532890920013,"44":0.21529250732136862,"45":0.05413753583880101,"46":-0.09490641966683239,"47":-0.020264353447172066,"48":0.22589417780838086,"49":0.026312734571783885}},{"sx":1,"sy":1,"depth":50,"w":{"0":0.02871218726893127,"1":0.04406768661403416,"2":0.09894511160528766,"3":-0.179773293112876,"4":-0.03850920636893276,"5":-0.0757798897549134,"6":0.07864350711197574,"7":0.040856302404033484,"8":0.10683456891943087,"9":-0.2611839634334454,"10":0.14900523975837843,"11":0.10149359964472708,"12":0.027935263762109197,"13":-0.029768974320951075,"14":0.020691008899988133,"15":0.03943981198106557,"16":-0.11988816444149356,"17":-0.010061637323149642,"18":0.16151457844317554,"19":0.03201128385994574,"20":0.0903846609368085,"21":-0.11748652314487502,"22":0.3065537914432395,"23":-0.20199732195384432,"24":0.04181734103852954,"25":0.3642572383905342,"26":-0.14719215896012408,"27":-0.09363276030506812,"28":-0.029294753841186492,"29":0.09639131553356574,"30":0.19373272212707232,"31":-0.10618296387432152,"32":0.055723814876425866,"33":0.10332057458735769,"34":0.14308179845587649,"35":0.19355670848329054,"36":-0.039839712211285246,"37":0.02424756669128465,"38":0.03715656325676639,"39":0.061269124045235296,"40":0.06014950541898014,"41":-0.035241218065326575,"42":-0.3956320610909401,"43":0.06926577633195988,"44":0.10232662381701399,"45":0.08829086499890233,"46":0.06381045071406717,"47":-0.08537560719395276,"48":-0.17269334696480926,"49":0.09307420048742335}},{"sx":1,"sy":1,"depth":50,"w":{"0":0.03116391028546618,"1":-0.0654297700754745,"2":-0.015745806693980475,"3":0.08300289720969571,"4":0.17416598796022562,"5":-0.12908177677063706,"6":-0.004234797869933665,"7":0.0061494302584465125,"8":0.0633377282220321,"9":0.026317074959017462,"10":0.13568587682036337,"11":0.10107502172071527,"12":0.112843912300423,"13":-0.04068216266888756,"14":0.12103219304828768,"15":0.08708214415779444,"16":-0.03808427448056348,"17":0.03809988526284833,"18":-0.18208117542477387,"19":-0.15907682653972285,"20":-0.16950714048627166,"21":0.08789966111572436,"22":-0.023043636354964387,"23":-0.08612615537363226,"24":0.04273056101409134,"25":0.028547865016528853,"26":0.15671329307055187,"27":-0.04809015625228818,"28":0.32237409282078244,"29":0.023430560347403633,"30":-0.08434912330466843,"31":0.13377886921828466,"32":-0.029312029356450817,"33":0.08122142061787127,"34":0.09454932054785693,"35":0.02217950837329786,"36":0.08735868420837498,"37":0.009746192660272742,"38":0.09564495176254882,"39":0.07463962608256469,"40":-0.1853414173633413,"41":-0.10261201593136929,"42":0.1329947040669551,"43":0.21669438570786598,"44":-0.10393424302738943,"45":-0.08948833293395729,"46":0.1225330813881773,"47":0.01402411909243629,"48":0.14893513338488423,"49":-0.03260285014543891}},{"sx":1,"sy":1,"depth":50,"w":{"0":-0.05255633630755001,"1":0.06870056641519524,"2":0.049600402754052114,"3":-0.23945882831226692,"4":0.01753516156944045,"5":0.12262918809654698,"6":0.024118538471318462,"7":-0.14202458534775375,"8":0.0003099294724455367,"9":0.07960384213992293,"10":0.057740441201160064,"11":-0.05562841146289095,"12":-0.15586966355513407,"13":0.03592432099105978,"14":0.1246328657593315,"15":-0.09244898903664311,"16":-0.10050880330995104,"17":0.07110010463616336,"18":0.1369745569688826,"19":-0.2193756215534286,"20":-0.004040981837789863,"21":-0.05857116500906437,"22":0.10596394482771375,"23":-0.18502188495353242,"24":-0.027119064004912288,"25":0.006790842298176867,"26":-0.05991962194338473,"27":-0.02503258654091801,"28":-0.11349450643961621,"29":-0.25457621259209495,"30":0.1373807723536375,"31":-0.09422155906943351,"32":-0.13437801410805372,"33":-0.19145429789548485,"34":-0.18902771192292692,"35":-0.09250979484838384,"36":-0.03253434427609108,"37":0.018920115350307787,"38":-0.07334870256668453,"39":0.20979878054360662,"40":-0.12348545082627492,"41":0.036339496254393304,"42":-0.013462979516464753,"43":-0.029112998027826208,"44":0.12010132804540379,"45":0.013114391739981038,"46":0.09770138190276025,"47":0.08307946492134267,"48":-0.14409035878637305,"49":0.21048792654866288}},{"sx":1,"sy":1,"depth":50,"w":{"0":-0.0022573405342828532,"1":0.12980900698724454,"2":0.010147792270405099,"3":-0.15023613554172402,"4":-0.1352882781946071,"5":-0.09756726162168136,"6":0.11930772199072016,"7":-0.017216407146134267,"8":0.08206265039442368,"9":0.04087493527954886,"10":-0.1103328855292867,"11":0.009050642574012124,"12":-0.01931047119621512,"13":0.06816508522356243,"14":0.0899827085617574,"15":-0.18673014349434186,"16":-0.033574613243012336,"17":-0.02433506096330251,"18":-0.151013391364436,"19":-0.13475538929061542,"20":-0.23400409925213028,"21":-0.13250604457588672,"22":0.036086730528131813,"23":-0.06427147105949002,"24":0.06903954555296432,"25":0.077574627771256,"26":0.12858353585957688,"27":-0.06427224662525449,"28":0.21193965644473858,"29":0.22517997979529153,"30":-0.1779363463208082,"31":0.007734828482176801,"32":-0.23825733920567882,"33":0.025145340405059925,"34":-0.11905408327601831,"35":0.1016915258647052,"36":0.03633095797687517,"37":0.01732527668674962,"38":0.16181506349822128,"39":0.014596723930151346,"40":-0.029054071857768336,"41":-0.09342878343179435,"42":0.1548498070223835,"43":0.014072038666746183,"44":0.000850068082020224,"45":0.10113160293171522,"46":-0.0749326801980495,"47":-0.023779250235536675,"48":0.0035285753799044906,"49":-0.2174896412865039}},{"sx":1,"sy":1,"depth":50,"w":{"0":0.004640973277516133,"1":-0.06685727278295234,"2":0.08176744551374727,"3":0.06765131465892005,"4":-0.07499129780710638,"5":-0.10143221572763558,"6":-0.15300377236481025,"7":-0.19751725662520833,"8":0.07810326038952757,"9":0.08695793850460448,"10":0.21484097360515092,"11":-0.04107650973102538,"12":0.24340834172697512,"13":-0.1262066195190005,"14":0.05892931019524604,"15":0.06512649026486425,"16":-0.3274368194780714,"17":-0.16358580940020417,"18":0.11430246945501209,"19":0.06966673684996448,"20":-0.14818891399482248,"21":0.10567149604862248,"22":0.034917263469754004,"23":0.027991381932270847,"24":-0.07725249246238854,"25":-0.10455640340515845,"26":0.03955292508915215,"27":0.1043046002835025,"28":-0.05105256246575861,"29":-0.002774311220265608,"30":0.006228673647933092,"31":0.029755728816224875,"32":0.006283515793822032,"33":0.09096137346120252,"34":0.3208841960425492,"35":-0.04029866204998848,"36":0.2597754722349437,"37":0.010895324866623236,"38":0.12300254104592906,"39":-0.01807628328856201,"40":0.055908019823963775,"41":-0.05701119595185106,"42":0.2032606886441956,"43":-0.0633140460177903,"44":0.11004087689428399,"45":-0.12725153540555892,"46":-0.04603377321631112,"47":-0.2401130186528532,"48":0.025054215689096257,"49":0.033516587789584974}},{"sx":1,"sy":1,"depth":50,"w":{"0":-0.061823317916206495,"1":0.010790925883367579,"2":0.17293716973020473,"3":-0.10080481574236924,"4":-0.03688208708142311,"5":-0.05790011364329131,"6":-0.2025475407528328,"7":0.06343057722654794,"8":0.12892833181575847,"9":0.06680564230563661,"10":0.12128398805802984,"11":-0.068462076317057,"12":-0.06843639956541837,"13":-0.025097548754179733,"14":-0.0028668109911695727,"15":0.05580658217489394,"16":-0.10982948954550377,"17":0.09901971321029987,"18":-0.12014679125108015,"19":0.11929097840348224,"20":-0.1309044819465733,"21":0.15049030960070287,"22":-0.16341969663490077,"23":0.016992280453348847,"24":-0.07996809441322218,"25":0.20419146565202254,"26":-0.18068183741579338,"27":-0.1255715832954431,"28":0.0648724279335734,"29":-0.1743957254494235,"30":-0.021989601393117213,"31":-0.18644390180141296,"32":0.40669685601688593,"33":-0.24273718060200902,"34":0.03617727111106818,"35":0.026152857904501288,"36":-0.09396244290944518,"37":0.361624668389901,"38":-0.10061875894788896,"39":-0.05992715104692899,"40":-0.1833545284259347,"41":-0.012023524098878658,"42":0.09240369676897198,"43":0.059184257528340924,"44":-0.0226869349955749,"45":-0.15282229566099756,"46":0.0053087641778101794,"47":0.18606343964661964,"48":-0.018250742815251877,"49":0.26865901474929177}},{"sx":1,"sy":1,"depth":50,"w":{"0":-0.03138028687494735,"1":0.07517737807533836,"2":0.22394303697362763,"3":-0.020657657597263974,"4":-0.06865860277427943,"5":0.07467121507377436,"6":-0.22674645728872062,"7":0.042060215069158746,"8":-0.028835216257194856,"9":0.03459531389030038,"10":-0.10553400951315099,"11":0.14284455739580668,"12":0.059617413361913625,"13":0.17605300828021403,"14":0.07286859950322833,"15":0.1412523262827265,"16":0.003068787085603148,"17":0.05862572299948034,"18":0.04716502098063082,"19":-0.033354548842824426,"20":0.019139219156224,"21":-0.05729061776307962,"22":-0.07230079168856163,"23":-0.049813090549092186,"24":-0.055495665985041874,"25":0.1985938989802828,"26":-0.170770807307831,"27":-0.09063775023150689,"28":0.015357041062734412,"29":-0.2161779519700007,"30":-0.044443618624709844,"31":0.08734767049556949,"32":0.2039768435372921,"33":-0.05459999007388736,"34":0.14373963400265477,"35":-0.19424875042624912,"36":-0.06663745687711572,"37":-0.07700356530846361,"38":0.16158654228507616,"39":0.06774756199606963,"40":-0.007811325702963146,"41":0.030632022560086736,"42":-0.11502450790143072,"43":0.018093695938882895,"44":0.05624446457027618,"45":-0.23711567205960687,"46":0.008509421157383314,"47":-0.08073115604641341,"48":0.037511194767857026,"49":0.08675250445722266}},{"sx":1,"sy":1,"depth":50,"w":{"0":0.04143623419556882,"1":-0.07807478802978214,"2":0.028507021269979824,"3":0.24005138947756444,"4":-0.07246857984045081,"5":0.08650997188021207,"6":0.00439298735789539,"7":-0.2064418618046308,"8":-0.22478336704379687,"9":0.0625794196112188,"10":0.23341596648620985,"11":-0.03420729467953784,"12":-0.00927963722885338,"13":0.003293649900112916,"14":-0.009988716143717765,"15":-0.2044448223839992,"16":-0.07938719177959619,"17":0.09608915124658751,"18":0.0011334850344124057,"19":0.1327455357090837,"20":-0.07370490938859792,"21":0.06502600802135339,"22":0.007210085047204627,"23":0.021949317381849635,"24":-0.2543896676960586,"25":-0.03315770891956238,"26":-0.07247355260184264,"27":0.0526011211416338,"28":0.032567572056863246,"29":-0.17282828432424965,"30":0.16177908112693767,"31":0.011668687357999443,"32":0.14777780243751223,"33":-0.041157894134784045,"34":0.0857272939698258,"35":0.018293524561093163,"36":0.04305138451797088,"37":-0.10432591831537137,"38":0.017436365323246605,"39":-0.07731843618924855,"40":-0.010497796570783214,"41":-0.09845782315992879,"42":0.11762632337359555,"43":-0.009663943042170099,"44":-0.18299275188726938,"45":-0.09408724609533078,"46":-0.07308577835514793,"47":-0.09197436009640565,"48":-0.09968145738924428,"49":0.16265983870943976}},{"sx":1,"sy":1,"depth":50,"w":{"0":-0.07086769196077945,"1":-0.047493181068003765,"2":0.0056377892316922,"3":0.19748713533553,"4":-0.1688038344257574,"5":0.1338596783228968,"6":-0.05295148663384563,"7":0.06634372963243179,"8":0.24610655355809113,"9":-0.12572288003553064,"10":0.1392877556796008,"11":0.017002575806474678,"12":-0.011269205122051812,"13":-0.09320196959881814,"14":-0.016508471006204183,"15":0.036007139138485446,"16":0.02812285278556695,"17":0.08926229309451311,"18":-0.1808420468118462,"19":-0.03131889914891229,"20":-0.14385218076608097,"21":-0.015320209705315887,"22":-0.09442399599196424,"23":0.09556070822387434,"24":0.09344028476558741,"25":0.19265277491340557,"26":0.05397247956129511,"27":-0.06744337582992341,"28":0.06422942579929598,"29":0.17859491165026153,"30":0.0006130855673592002,"31":0.08666638207240611,"32":0.17159236707773526,"33":-0.027784726724402898,"34":0.17636372158278035,"35":-0.10697478876830596,"36":-0.3029470533311379,"37":-0.11654540649292668,"38":0.14110930078254266,"39":0.15542830655581452,"40":0.32704098956205,"41":-0.12752937281513757,"42":0.2219676225040731,"43":-0.06910891382791412,"44":-0.08803329233567012,"45":0.11127587704991668,"46":-0.163400952558738,"47":0.018137915747309295,"48":-0.15321610621086368,"49":-0.18859641840736724}},{"sx":1,"sy":1,"depth":50,"w":{"0":0.08973938256106567,"1":0.07570077983679982,"2":-0.10221542418006281,"3":-0.05396360645748984,"4":-0.11461701813223416,"5":0.12794153372561193,"6":-0.010811466896437244,"7":0.10134292055321537,"8":-0.02540214151399777,"9":0.022843590284953606,"10":0.19770206956496642,"11":-0.095967730433677,"12":-0.003589405866578662,"13":0.08843847785018843,"14":-0.22342747234419036,"15":-0.164826625109258,"16":0.0013964539231249864,"17":-0.07541920752594077,"18":-0.07885446252677462,